"","AUDNZD.Curncy","EURAUD.Curncy","EURCHF.Curncy","EURGBP.Curncy","EURJPY.Curncy","AD1.A.00_0_R.Curncy","EC1.A.00_0_R.Curncy","BP1.A.00_0_R.Curncy","JY1.A.00_0_R.Curncy","PE1.A.00_0_R.Curncy","TU1.A.00_0_R.Comdty","TY1.A.00_0_R.Comdty","DU1.A.00_0_R.Comdty","RX1.A.00_0_R.Comdty","G.A.00_0_R.1.Comdty","JB1.A.00_0_R.Comdty","ES1.A.00_0_R.Index","VG1.A.00_0_R.Index","ND1.A.00_0_R.Index","Z.A.00_0_R.1.Index","HI1.A.00_0_R.Index","NX1.A.00_0_R.Index","SM1.A.00_0_R.Index","C.1.A.00_0_R.Comdty","CT1.A.00_0_R.Comdty","SB1.A.00_0_R.Comdty","KC1.A.00_0_R.Comdty","CC1.A.00_0_R.Comdty","LH1.A.00_0_R.Comdty","LC1.A.00_0_R.Comdty","S.1.A.00_0_R.Comdty","BO1.A.00_0_R.Comdty","CL1.A.00_0_R.Comdty","NG1.A.00_0_R.Comdty","GC1.A.00_0_R.Comdty","SI1.A.00_0_R.Comdty","LMCADS03.A.00_0_R.Comdty","LMAHDS03.A.00_0_R.Comdty","LMNIDS03.A.00_0_R.Comdty","LMZSDS03.A.00_0_R.Comdty"
"2005/4/1",-0.0173638263125326,-0.0281850710755438,0.049000518300041,-0.0211295069302817,0.0373665720400165,0.0521627926440056,0.0407247418680094,0.0706511426800888,-0.00316068969666926,0.0792980209211908,-0.76996319689443,-0.0181258865007611,0.730930692296755,0.290176458032681,-0.0402640608630768,0.434016884818319,0.0349671776889474,0.0565914744205396,-0.010265628026875,0.10680015812221,0.0333441818519142,0.0203900958535745,0.0848589702660146,-0.0143221611249129,0.00330940715623188,-0.00737716282016401,0.0101462708927749,0.0024170368886507,0.00326433689309519,0.0014049601260641,0.00375809161642167,0.00150930309154072,0.0796372050166214,0.000186724434006375,0.0591644973412715,0.00735265277088684,0.0366151718720164,0.0314500946219993,0.0164415196754205,0.0368192422687614
"2005/4/4",-0.0221666592189146,-0.0336580215046506,0.0532468311007788,-0.0297190005655845,0.0428620919292651,0.0472802364119405,0.0254271704183878,0.0555283565542602,-0.0139189923693643,0.0618713323395931,-0.756748309989484,-0.0203574219857836,0.734564379709625,0.288317824164659,-0.0089847310866699,0.452470489290936,0.0325962210441369,0.0573246481580967,-0.0100802533192499,0.103451726817794,0.0349461209456287,0.0208333325404773,0.0641873553230093,-0.0148843308532661,0.00266071829261574,-0.00674874122960429,0.0101570654652962,0.00314159251999481,0.00247529688011878,-0.00413366767601162,0.00344034286686476,0.00221270021036797,0.0784365737724159,-0.00257806503743871,0.0468957846489398,0.00851808086590325,0.0398360100849939,0.0350425395087763,0.0201455409352068,0.0370636362427924
"2005/4/5",-0.0263489554182431,-0.0316134622256808,0.0258926435218492,-0.0343747555158799,0.0518818080510487,0.0412684603335996,0.0176698703690206,0.0509438843709436,-0.0300241091322553,0.0641460720548473,-0.733455299602507,-0.0236368097384087,0.681046164567106,0.287639384414177,-0.0163062367169156,0.39172678028319,0.0457218668220168,0.0745571911558569,-0.00530037978730969,0.114715999787262,0.0328527209865072,0.0262946332576724,0.0721640200271745,-0.0165640172824439,0.00238347817499175,-0.00487835037395791,0.010066887030956,0.00228443141411182,-0.00174252775102258,-0.0069132905882343,0.00358466272977328,0.00208939665750966,0.0665547711529804,-0.00338040289668424,0.029550937104428,0.00619421389124385,0.0358596271360957,0.0304997976419372,0.0190997388360993,0.0371582892265429
"2005/4/6",-0.0425816644520573,-0.0244055766010291,0.0389121844010651,-0.0453664679111369,0.0549021736448648,0.0344302504683533,0.0111555952837275,0.0431688026977232,-0.0358205897321652,0.0635345477742995,-0.685363972428668,-0.0123631226419469,0.724743900360752,0.287869733530772,-0.0136171399576168,0.348245682578048,0.049921080032935,0.0788065725281024,-0.00465323354359253,0.132327982670975,0.0404164054919922,0.0338029058537078,0.0921089003475293,-0.0151976358515715,0.00164570400088456,-0.00431859407843579,0.0102612375388004,0.00241820792623483,-0.0031397193168338,-0.00872218379004892,0.00434321848726648,0.00253731171313196,0.0585886191384474,-0.00409401583800679,0.0259021342558999,0.00554360515938125,0.0394266866995248,0.0339724282793797,0.0230978732994656,0.0370880050101038
"2005/4/7",-0.0359298223504859,-0.0296713749508306,0.0388538787933906,-0.0224126629792302,0.056615141386065,0.0395133368655452,0.0160783468956196,0.046545631969166,-0.0387292868127861,0.0733064677839529,-0.725100814038836,-0.0393960817799915,0.850354601559608,0.289679709800934,0.0136023567173157,0.354010594347961,0.0587510224348425,0.0922501820299978,-0.00110253074192669,0.137688328049072,0.0409036331340298,0.0381101502149477,0.0981040253460313,-0.0152699886121881,0.00258607191230603,-0.00449944064992214,0.0101127640141467,0.00198543776063718,-0.00402225298559209,-0.00810538356997378,0.00467845260831714,0.002206353686483,0.0398825372081262,-0.00859715544725181,0.029935767341249,0.00579044422278804,0.0406670081274633,0.0367110010279822,0.0226423159522625,0.0370781287057729
"2005/4/8",-0.0286488502353979,-0.0361891436256824,0.0333828503926316,-0.0236402605076637,0.0692091023137828,0.0518130876367303,0.0232008192392511,0.0537141965354681,-0.0381968797396301,0.0815369774409469,-0.684880495264047,-0.0184103498191339,1.02994068626317,0.289630260272151,0.00663466443083707,0.37332047880247,0.0516247002723951,0.0921366734970978,-0.00468152161830084,0.13913468209677,0.0474661858810074,0.0372305759043033,0.0939781697968624,-0.0149323964016171,0.00348361416260427,-0.00601940791051354,0.00982323768744681,0.00233076167222453,-0.00248554802355313,-0.00741062565317334,0.00406573481240786,0.00093744728647389,0.0296084608138302,-0.0105926892723233,0.0553800994055414,0.00994839704220041,0.0441337489761984,0.0357926723591488,0.0226172281679867,0.0369985986249756
"2005/4/11",-0.0423254430112323,-0.0413175009045244,0.0541633046101763,-0.0319687360237256,0.0655818850223189,0.0546589807964279,0.0280334946982014,0.0605552101110124,-0.0304235100256223,0.0817846380858801,-0.664395334876616,-0.00328447779797234,0.99588683167951,0.289839607301233,0.00401165472836068,0.370109579999147,0.0542791226434044,0.0953613472806327,-0.00645407305202405,0.139592726361487,0.055844515347123,0.0441728485994988,0.112012914226184,-0.0149355691603838,0.00308024992691711,-0.00624523624144457,0.00961281200149638,0.00151572552535249,-0.00211713115521824,-0.00707979385460188,0.00427144802752247,0.000681428731435155,0.0352524423406743,-0.00923922346479697,0.055984065516219,0.0106884234466339,0.0497172956508879,0.0471467917100516,0.0240126995384493,0.0369007167488458
"2005/4/12",-0.045797222228719,-0.0458600156537315,0.0628267367846425,-0.0512588961907311,0.0609497455502395,0.0584182406626593,0.0330316710459074,0.0682964499063345,-0.0291513454092891,0.0816814918123676,-0.594354226293583,0.0234087224124219,0.9908300544958,0.289380150907586,0.0217038152504202,0.392809504433926,0.0486408770842394,0.0876879952183324,-0.00815120138651805,0.137920269269338,0.0541235540223577,0.0406765084277187,0.101569004600604,-0.0146274752060411,0.0026674800461263,-0.0054691319386354,0.00949019734656806,0.00209245716827361,-0.00309501696655554,-0.00385991333074296,0.00460869123265984,0.00130859853957204,0.0160883844141798,-0.0119426207403047,0.0534637238241237,0.00971609259353178,0.0427853979733514,0.040021745622896,0.0186954085912143,0.0364813847157639
"2005/4/13",-0.0511177617608263,-0.04577576765277,0.0647388611056939,-0.0470281321296941,0.0538857066567893,0.0594845449658712,0.028680910785353,0.0645591760342994,-0.0237662215799005,0.0820192930359563,-0.491312941042563,0.0392506777861186,1.06582100104856,0.288489542599776,0.0550736722889593,0.377505736779178,0.0307033730695602,0.0930046758823562,-0.00710557369007865,0.13829197585683,0.060700487937722,0.0307062942649125,0.107625030027628,-0.014857783003867,0.000283671191243802,-0.00678171802532291,0.00914759456731638,0.0018080574402999,-0.00279931502555139,-0.00207228116821968,0.00597431702307949,0.00227023745110393,0.012457387304316,-0.011859422029809,0.0692764029111933,0.0118942838702926,0.0324788638591169,0.0230434963995833,0.0155832225948288,0.0277036985363014
"2005/4/14",-0.06945249160911,-0.0452923556231838,0.106335115554611,-0.0463142704715137,0.047939441054871,0.0610016568570476,0.0280352319531549,0.0650397114611006,-0.0194677193759987,0.0853693196329788,-0.341372082585742,0.0576811701606298,1.17043936814758,0.293555910322723,0.0961768882915263,0.394297614270781,0.0155859589450758,0.0928611225893153,-0.0248579276205978,0.138493876434424,0.0632517160271227,0.0323852851691267,0.110236700923726,-0.0142000742127476,0.000851489424167293,-0.00878113492528812,0.00810648981822689,0.000714656649207186,-0.00352272561104889,0.00108244269997081,0.00503291630684265,0.00160718131470966,0.0219285544708127,-0.0108732991630212,0.0403495173755906,0.00942553128372834,0.0291013098027523,0.0191269423762577,0.0180160767486169,0.0210290481555199
"2005/4/15",-0.0579033871017019,-0.0220298129433396,0.0729965462715068,-0.0479620023885541,0.0551534902889845,0.041284280834842,0.0219646249655514,0.059529481995306,-0.0311023004789164,0.0862534361862835,-0.336752562238426,0.0672188405451278,1.24901540811231,0.288986253876509,0.114923348490034,0.426353247925511,0.000920241199096452,0.0566025668631812,-0.0312910091954887,0.119501287251881,0.0531162733514827,0.014508114980196,0.10914487114164,-0.0135251830853844,0.00113739490233689,-0.00935537795485069,0.00887128537585389,0.000813539029408302,-0.00255294988734766,0.000584801076750932,0.00596194706183307,0.00234845288962609,0.0125040475301063,-0.0111183601345397,0.0249791204208231,0.00546014169315912,0.026373959996185,0.0143778206641384,0.0195125035905718,0.0204688764172904
"2005/4/18",-0.0665231661776427,-0.0158518938292517,0.0501097086492675,-0.0423371404130198,0.0571019359526623,0.0424995678604511,0.0282650781002339,0.06584608230389,-0.0259030696148717,0.0862534361862835,-0.396222728210913,0.0516236298912316,1.24007184297704,0.288986253876509,0.128001277288841,0.45083253591109,0.00593088868113778,0.0376908837637287,-0.0285493188035687,0.0704572953525135,0.0446547387389504,0.0038103959536106,0.072681434410899,-0.014763334951607,0.00280198009951037,-0.00822124571908519,0.00901882402399987,0.000632212426542508,-0.00463255597252123,0.00353529598574427,0.00610175193880672,0.00191775510674318,0.0129378330107689,-0.01337524086773,0.0372100689613125,0.00573893135020685,0.0304054228082045,0.0176748694934318,0.0173932767562704,0.0206667971106841
"2005/4/19",-0.0739113030838014,-0.0139665372888416,0.0161132016738724,-0.0533318423827384,0.0504611066288601,0.0490330618884601,0.0378905253462999,0.0808912813335731,-0.0119124366964249,0.0996605375785049,-0.283285232799859,0.0907451485022645,1.38621581233698,0.287538269422426,0.140214190248812,0.452616080561402,0.0124416797047268,0.0326683661667239,-0.0260352798341638,0.0729604929790387,0.0410079436095627,0.00250996901134276,0.0758752465009149,-0.0115767091289453,0.00347954731881312,-0.00810604310386346,0.00936572524605249,0.00106026068138505,-0.00404091960553023,0.00467801525833358,0.00808991491963063,0.00376229035537758,0.0263630839523702,-0.0113066007096785,0.10127750233429,0.0122685968549816,0.0345966901227019,0.0209848932355487,0.0199858056783126,0.0252975352453607
"2005/4/20",-0.0804491942230767,-0.0107100351943421,0.015381346870099,-0.0447707690922539,0.0549369108045612,0.044986667365162,0.0334185448180021,0.0745205592184902,-0.0209860895680305,0.115693445106833,-0.223886247900992,0.106939699954225,1.4201969323205,0.28741903785137,0.153343343238813,0.445783624497581,-0.00891849094067988,0.0167653795319512,-0.0332491110567611,0.0486225127453195,0.0347297876725138,-0.0119906824147295,0.0569415405479124,-0.0108245635779194,0.00340489560876009,-0.0090471614244866,0.00934429461171989,0.000707539822940412,-0.00329647661191606,0.00432367279420607,0.00819817943452557,0.00366949218374352,0.0256843686758578,-0.0123031238157388,0.0848443882658208,0.0110771396471807,0.0363353637448197,0.0214435517689946,0.0193064322890812,0.0263972048886796
"2005/4/21",-0.0866490861130526,-0.0116633095824606,0.0339573532315012,-0.0325349903855239,0.0583040518573606,0.0430232535536147,0.0297155441779916,0.0655981572855138,-0.0263160335592501,0.114514629051127,-0.379140777200397,0.0620100395689049,1.35204204532561,0.28577294701992,0.160903005472909,0.441090042342693,0.00480595666765325,0.0281406058364284,-0.0202160333679206,0.0464766965412395,0.0449263316461613,0.000256320287915741,0.0520553707574197,-0.00926734273915538,0.00618064226796079,-0.00881320783822531,0.00937755454033201,-0.00171966514202536,-0.00549983354187919,0.00476246522769349,0.0104123732487025,0.00553529935352814,0.0347041563654873,-0.0104259084745652,0.0709308083949678,0.0084587680424256,0.0310077283156368,0.0155854937776608,0.0165150496455503,0.0211875631927276
"2005/4/22",-0.0878128644712889,-0.0214293911946804,0.0295995965239621,-0.0366347135215531,0.0404277348058658,0.0478482713355629,0.0285183757140983,0.0651102143137135,-0.0145874298787703,0.112951473800617,-0.303325244027539,0.0788955364391103,1.46859131874232,0.290319958134,0.152469387233206,0.419901175871583,-0.00162936453205869,0.032247748563862,-0.0278393177393222,0.0604209850961956,0.043289403089548,-0.00870006483288401,0.0599644047903767,-0.0104007678668225,0.00622467351071966,-0.00994694491303869,0.00925122374565305,-0.00294487339323668,-0.00726841647952909,0.00562974334019245,0.0101232786547844,0.00463179868428783,0.0493193551428387,-0.00778109423308058,0.0619323500302158,0.00837080006024665,0.0291918801929396,0.0141589527075125,0.0159875647683302,0.0206450786535489
"2005/4/25",-0.0812874589173216,-0.0295073139712445,0.0300265508781621,-0.0482749744248,0.0232078306654469,0.0486301842783024,0.0235901568579929,0.0634006894691687,-0.00662066564500347,0.118022308078636,-0.314950717350874,0.0780027661389922,1.48050608355486,0.289047754348084,0.167921234660808,0.440045110785263,0.00139521022239155,0.0303137669097153,-0.028289188335724,0.0660426379710657,0.040653130194632,-0.0038729617522729,0.0546543847316462,-0.00888537349661773,0.00805949947263442,-0.0109767848282719,0.00924574058754478,-0.00444754413122647,-0.00883595806781941,0.007481026163119,0.0102602910185698,0.00504190350710528,0.0373343691275246,-0.008132104565759,0.0767909724954906,0.00802359317182227,0.0267459416514996,0.00793923267295243,0.0162841590975508,0.0192657200034327
"2005/4/26",-0.0729691326209626,-0.0238585008155289,-0.00119365834991356,-0.0375399972138894,0.0253808589542317,0.0424239817547811,0.0191789228896573,0.0552686531386943,-0.013065647847273,0.116999572354331,-0.332541845375226,0.0747294389607013,1.43494975240299,0.289062135745924,0.160243695652872,0.44324631512349,-0.0146321648172027,0.0248924118764096,-0.0362782312432652,0.0506793181061352,0.0529265807277736,-0.0141042202048368,0.0603644836104558,-0.00959661941289016,0.00855826352280933,-0.00750380601364911,0.00904016919341302,-0.0056482477799268,-0.00533763815793822,0.00849331045874438,0.0105462186637523,0.00470642409061284,0.0462679546770763,-0.00802339170584849,0.0880697825695265,0.00754967723056305,0.0245506246353324,0.00739079657788263,0.0149827211450935,0.0180001952203397
"2005/4/27",-0.0684011200527326,-0.0245355370254273,0.00658583597819279,-0.0540273715771624,0.0108288713082975,0.0399694711338391,0.0146385731996474,0.0566366363511682,-0.0063844003670664,0.11696678510512,-0.28122458505672,0.0865507087196047,1.48010111518552,0.288916114405772,0.168527370436937,0.438449998161926,-0.0136687237859036,0.015937579266498,-0.0363819394860911,0.0197937384391417,0.0513150204082154,-0.01362544141552,0.0361470557865002,-0.0109986618060086,0.00756519780633654,-0.00694981709731655,0.00906345609491607,-0.00480864275556271,-0.00407435627772065,0.00348158449858405,0.00926905348709993,0.0041841322928677,0.0242138406313552,-0.0116337563850228,0.0621960262060756,0.00552477006081283,0.0215937266599672,0.0052667252092305,0.0144615039818929,0.016555386673737
"2005/4/28",-0.0782768934888225,-0.0329309337338018,-0.00588729193073092,-0.067292309872103,0.00690170529910222,0.0420622992085476,0.00927502653819125,0.0555966957696347,-0.00928202915843231,0.102703175678108,-0.161004069552959,0.114686866482903,1.47100873918739,0.287681907276863,0.170989712390868,0.448331088421009,-0.0287833349962298,0.00408583527817626,-0.0425072805615352,0.0117964733699016,0.0526712748166881,-0.0161659532640422,0.0317010789261349,-0.0121005268625731,0.00947125297484504,-0.00868359366826097,0.00900291626869019,-0.00549662639992844,-0.00445738905414322,0.00087665693932958,0.00968040917064563,0.00439316737938398,0.030799616694777,-0.00986775075531353,0.0539191025399436,0.0014847064629528,0.0206239271889574,0.00534525871085172,0.0132551361525352,0.014393380547103
"2005/4/29",-0.0777998067767465,-0.0360630597660199,-0.00851334767684266,-0.0690729691028273,-0.00227528925107608,0.0437750211267498,0.0107029495942052,0.0572822016138332,-0.000919675031337227,0.108028079667717,-0.307079316553815,0.0790150837429788,1.4869547643103,0.295598553812682,0.161988309459584,0.451899706624908,-0.0227900821140862,0.0025424364214489,-0.0440851559978044,0.00925355190584748,0.041353876379882,-0.0165967256965477,0.031972457699833,-0.0123355263121467,0.00947873502253151,-0.00786980560950935,0.00874241847707439,-0.00510544119028637,-0.00375097847621248,0.00143546139998031,0.0100030865267273,0.00415550460440241,0.0118922166926789,-0.0105415870954643,0.0747281083238947,0.000447344919574046,0.0238468654676318,0.00622353948520642,0.0130189011627403,0.0168037618509904
"2005/5/2",-0.0970460606916483,-0.0265455849763125,-0.0151324025812699,-0.043647178735011,0.00711395221327624,0.0424296815820178,0.0170555466260914,0.0561913776255229,-0.00322032843759037,0.109326873486386,-0.240220787892268,0.0822546233597848,1.50188584387976,0.295970356967987,0.147668220921181,0.451037051296001,-0.0171417156678093,0.00749363056694985,-0.0431722387836248,0.00290610544962156,0.033506411471296,-0.0160388105103522,0.0455424255792542,-0.014791530107119,0.00919510229411158,-0.00747207747308615,0.00562804381481088,-0.00578428048582615,-0.0053474336795638,-0.00167547112431381,0.00953306155774728,0.00355298555877245,0.0274340954270956,-0.00969459790970904,0.0508006957853267,0.000622227731334743,0.0233930944727654,0.00751900438323251,0.01282718421656,0.0159376838610067
"2005/5/3",-0.0992598573273854,-0.0207575102674152,0.0135973872634521,-0.0362905692385256,-0.00380613016441901,0.0389973687929338,0.016428813286778,0.0529652991440235,0.00524893255079702,0.1087647988775,-0.224598919395119,0.086714316433399,1.4957423902777,0.297095243099528,0.159634755277774,0.45183536443829,-0.013472727846241,0.0160290540831573,-0.0380337402018774,0.0278780442059958,0.0379394847070146,-0.0162550479748469,0.0492884058172627,-0.0156350129679398,0.00706662532283019,-0.0110778089119242,0.00589272149608894,-0.00513000109635145,-0.00664007406367819,-0.000252463498908388,0.00832477841873512,0.00317048562121644,0.0156871532601978,-0.0118927663296805,0.0265444945834556,0.000305268195795402,0.0214974536938086,0.00254488554135071,0.010178444080507,0.0130580577439851
"2005/5/4",-0.099683234388695,-0.0253981877284725,0.0377700391528084,-0.040084252687896,0.00260475202672305,0.0435475661063553,0.019677217303013,0.058092578446654,0.00429505928920652,0.10835675539742,-0.240265783686309,0.0736041180012079,1.49324453312833,0.295205535729814,0.134503703828074,0.481823731453261,-0.00447264059597658,0.0205925841494387,-0.0314368241326443,0.032522454085474,0.0390130218611469,-0.0102909948714994,0.0586842815261529,-0.0156631627663102,0.00643821582547455,-0.0106903845242965,0.00656149963245998,-0.00303271320823549,-0.00557811520025924,-0.00232425224477547,0.00777873264393411,0.00345283046894763,0.0217384538173168,-0.010745487866454,0.0310049687392196,0.00237790469665763,0.0186187989831257,-0.00218975726544104,0.0108179903300343,0.00844519236252187
"2005/5/5",-0.109436864156496,-0.0215543014387684,0.0561450401008784,-0.0415766035567993,-0.00387630054351513,0.0442555547989126,0.0197839167125116,0.059536532326022,0.0103479459124933,0.107527919954653,-0.111410992410748,0.0967653507927844,1.47589826152592,0.294533225389317,0.16713877049691,0.496627317513256,-0.00435868213241002,0.0202641836994461,-0.0286029102607543,0.0370335757237822,0.0537269953236388,-0.00753743122966062,0.0592291091777348,-0.0158173694938355,0.00479608778707459,-0.0149668530076942,0.00561507880757746,-0.00384073585181395,-0.00446457578203096,0.00276308016924545,0.00849282706569555,0.00406252281082587,0.0249818617606794,-0.00889119425575672,0.0346977305325161,0.00274736052047176,0.0166554763126903,-0.00384087298476806,0.0128020447673953,0.00538529611735981
"2005/5/6",-0.120596346397179,-0.0209451804395187,0.0756289966959385,-0.0541946272676554,-0.0115583751774649,0.0302803251992982,0.00293662749700097,0.0432488233635591,-0.00183697560400622,0.106451186452308,-0.244451044927395,0.0707455502583627,1.3728138579286,0.283743068566817,0.108866764300286,0.493908215675187,-0.00962031486987574,0.0251201219019495,-0.031745453860551,0.0399047214139752,0.0525660631209249,-0.00820377530815141,0.0652851064032086,-0.0153493080101855,0.00491672238967258,-0.0120728792136494,0.00622683676967084,-0.00317869521526824,-0.00699176373175941,0.00135010212851104,0.00891819769774524,0.00422437302037118,0.0237305827053707,-0.00935647211851979,-0.00750552289882468,-0.00201268533725989,0.0171365216809761,-0.00203859033105987,0.0142486073387327,0.00741200528305804
"2005/5/9",-0.121574461769894,-0.0130702565255172,0.0821700058083274,-0.0330205172199152,0.00142530617725267,0.0222189508518761,-0.00162302604708639,0.0310835244818676,-0.017030464847552,0.106296987611025,-0.263691654411807,0.0570194657377342,1.37052104627175,0.282831134236591,0.139231601634042,0.463517559595673,-0.00857061691921158,0.0236452569371234,-0.0350092419569152,0.0359491435260455,0.047283010007439,-0.00762805215249467,0.0616692573082043,-0.0158792544042709,0.00598688893210044,-0.0127975499154119,0.00618377991227093,-0.00239163994004679,-0.00878793802024634,0.00187042896050309,0.00772492248273523,0.00456329337379683,0.0274846459322807,-0.00792928675615003,-0.0312817640397346,-0.00151514219579602,0.0180243525668417,-0.00123478306741374,0.0158417602094097,0.00782098053138077
"2005/5/10",-0.113557982875388,-0.0217042693809165,0.0986763175807985,-0.0153313727139382,0.00654199466746095,0.0278146465898207,-0.000785883643877322,0.0256782529715206,-0.0199808007161569,0.102654081499288,-0.157680880913017,0.0878998976968467,1.39127150137295,0.282096274046261,0.175092306728109,0.463387913952004,-0.0213689492099423,0.0136532434601265,-0.0408015419787264,0.0261145568927884,0.0407080255327479,-0.015373638326464,0.0443765246871234,-0.0155083754025496,0.00708216916315499,-0.0119283124215055,0.0047719403036796,-0.00322435927021753,-0.00882132715892167,0.0029060751083196,0.00704118305423032,0.00455857579977124,0.0282486221724585,-0.00798910520528942,-0.0191004319879344,-9.58768551392272e-05,0.0185058348559241,-0.00179404955566415,0.0166476917057661,0.00890315383378041
"2005/5/11",-0.113725843959333,-0.0318920022551605,0.118684748412895,-0.0139929321882793,-0.00304202028750466,0.0302885224641197,-0.00487350791612907,0.0191812216336884,-0.0169992409272379,0.101643641835232,-0.0896612605232523,0.108144539938682,1.39140872793553,0.281231376987526,0.233825470193899,0.466003299922637,-0.0147247283529348,0.0143623129413563,-0.0371954338776779,0.0243743083908763,0.0330666714157593,-0.00918213234955539,0.0507934984780302,-0.0155872952821049,0.00786743946890805,-0.0101854322105455,0.00573273440919823,-0.00328431473472213,-0.00714968575517479,0.00180106755612866,0.00722504526743481,0.0048595487312574,0.0151021745279479,-0.0106317166968529,-0.0107984870847692,0.00075829659341674,0.0182757281785997,-0.00903718056150127,0.0162799536778833,0.00711311129654986
"2005/5/12",-0.0927924011344343,-0.0263210728920863,0.111084786941882,-0.0272831494197301,-0.00620304829578204,0.012380356632867,-0.0217751510851205,0.00526521838615488,-0.0321250061771807,0.103909035988594,-0.0834154273416766,0.121003036190477,1.37509337570491,0.281941994733395,0.254066146365795,0.466755301056625,-0.0239494659969286,0.0140383092218481,-0.0375611614341989,0.0276642029141909,0.0369858257796736,-0.0170358475534007,0.0561907126813253,-0.0161642826477471,0.00616842450934094,-0.0122910007474024,0.00535164382299197,-0.00450808414030604,-0.00691554973170372,0.00432401855652603,0.00543305432104197,0.00388040754468365,0.0039441577364629,-0.0116558336047132,-0.0504996732589187,-0.00325220249078064,0.00899268863028614,-0.014506595814022,0.0171570824090551,0.00220999950835516
"2005/5/13",-0.0714632858065391,-0.0252563341937559,0.117302173464731,-0.0254293273225815,-0.00793722840074172,0.00851702654199006,-0.0278879722213809,-0.0050254268650788,-0.0366901538773139,0.102411546802,0.0364565952066595,0.155451059963237,1.43794880180321,0.31755656406226,0.269662935538517,0.46748460082726,-0.0253344235834675,0.0163564992229212,-0.0281888355953799,0.0265507483026918,0.0296231135021492,-0.0209876586579621,0.0521801830425181,-0.0161847818097485,0.00421928223979295,-0.0109205932468235,0.00455303151034994,-0.00583608300433545,-0.00782777586718003,0.00756210734977979,0.00434559261551104,0.002321031363686,0.000174712191481539,-0.0113340345922899,-0.0644813763425002,-0.00417965651530289,-0.000608888848257701,-0.0218385190669583,0.0143225484159719,0.00163817429318555
"2005/5/16",-0.0586243551132193,-0.0189270328407269,0.107390631509597,0.00075703800348937,-0.021794157090142,0.00491540672781184,-0.0278726338450072,-0.01439565564233,-0.0264360411423428,0.105309581987012,0.0603777852635383,0.16767114760122,1.43869734118978,0.319609212773236,0.275414037434227,0.465718375233599,-0.0129056062868047,0.0227145798398688,-0.0223736003124744,0.0260576615749402,0.0317185385704306,-0.0203693503123198,0.0556216762442562,-0.0153893730036224,0.00242295167333478,-0.0104317485942697,0.00234992542805121,-0.00502626990293835,-0.00894296018516948,0.00839367121649838,0.00524684929638744,0.00227476651249731,0.000639014778408175,-0.0105622765318704,-0.076636041663504,-0.00433240819858946,-0.0021329705086232,-0.0222987127161521,0.011090980517778,0.00103779088517385
"2005/5/17",-0.0524822003356028,-0.0341864377652263,0.140745648802465,0.00161990322774958,-0.0131052634158601,0.00157287614834092,-0.0459241337232668,-0.0323258307540934,-0.0502211285305801,0.105079298003389,-0.00502564260248788,0.167491427150451,1.44726974785873,0.319578340424417,0.275248144246519,0.465791729579652,-0.0010090810998619,0.0258852343724012,-0.0164806038388952,0.0443415487474121,0.0165127729564873,-0.0208886119552498,0.0609435133636971,-0.016730890870582,0.00157360995500779,-0.0121984600171702,0.00357683441452061,-0.00566953684924053,-0.00980777519629034,0.00969506137104269,0.00367824260495011,-6.50955478655684e-06,-0.00244219546211182,-0.0109517801909499,-0.0967580471084509,-0.00416994193580543,-0.00303635558058704,-0.0222594751821514,0.0100072863428838,0.00175790042906436
"2005/5/18",-0.0595313982914661,-0.0449016435925378,0.116704785298159,0.0302579871509668,-0.0124824341266457,0.0155729575582604,-0.035018936554868,-0.0313188833419589,-0.0407400086643291,0.104481574193449,0.0301485102621085,0.18183991677864,1.45219858660264,0.321055207063522,0.277180732208803,0.472643871987998,0.00252367638233837,0.0379335395112705,-0.0118097503451339,0.0643298948390146,0.0197379875470532,-0.0214344799852676,0.0699200020605166,-0.0157764018329508,0.00207048255030833,-0.0119407505587232,0.00274473111315751,-0.00591977322622942,-0.0139820983586634,0.00636792082324456,0.00496074882267338,0.000808765736020886,-0.0068461964252498,-0.0130127813040069,-0.0855411683604998,-0.00133385754302913,0.00115365475889546,-0.0213754697418826,0.0104570828502681,0.00236634942498868
"2005/5/19",-0.0622398154383468,-0.04682554396529,0.111978330475555,0.0329010422509886,-0.010251723919599,0.0151892645130057,-0.036162433623096,-0.0332032258580507,-0.043602640300859,0.103700524416343,-0.00706879284071601,0.175676679260624,1.44495855228016,0.31860181817663,0.280224455312226,0.472396945728885,0.00397080653766841,0.0382770660354885,-0.0104384192012032,0.0703342665989081,0.0209629859243457,-0.0165465185717979,0.0697216311220337,-0.0164492380610338,0.000440786779703072,-0.00934205707578404,0.00293060273444525,-0.00652038646729291,-0.0141519052909771,0.00550459395372343,0.00552709600324161,0.0012354815305903,-0.00652767685288327,-0.0118862526792542,-0.091277555374896,-0.00278230024289388,0.00298141010158013,-0.0197034271797258,0.0105934318019709,0.00114919184027217
"2005/5/20",-0.0626301587278164,-0.0585298926014372,0.174398383488139,0.0210546804945707,-0.0163180415507906,0.00684227724380761,-0.0552467590441779,-0.0513806660141387,-0.0582126754818483,0.102822837386893,-0.0979821353241926,0.150800099742451,1.41719889383619,0.316143640734005,0.278457863118952,0.481065059498083,-0.00152844753817854,0.0413708088420434,-0.0101169214754153,0.0697979113454349,0.0208631040811802,-0.0205972686534954,0.0663274069609642,-0.0174196224998626,-7.55018281654037e-05,-0.00714263009222322,0.00376767090798597,-0.00725776761432851,-0.0158315974512881,0.00444142994542921,0.00442954004382201,8.07910028759809e-05,-0.00320263016185875,-0.0134141196861238,-0.128882903592779,-0.00646705299745875,0.000842010247786797,-0.0204138840078668,0.00922287677857481,0.00112732175879291
"2005/5/23",-0.0493933820868668,-0.0623175758077221,0.151478181375338,0.0226500227486203,-0.0207518846451107,0.011299133977448,-0.0505536485041679,-0.04759734466871,-0.0514117688918028,0.104206111499321,-0.0255235632971695,0.196027242254503,1.41462274987709,0.31510278866461,0.27768724981153,0.503976115501154,0.00679706595213472,0.0481829482916291,-0.00409153846255174,0.0849986713089281,0.0197582225546787,-0.01613853899793,0.0738898442583627,-0.0112241930623665,-8.2435380212237e-05,-0.0074076435694804,0.00379598941343376,-0.00801800680109207,-0.0160466149935758,0.000949764315784392,0.00377852425070552,0.000230230735554724,0.000212066699957044,-0.0128834707569213,-0.137468206741047,-0.0058657717069644,0.00223860286327149,-0.0208818403374077,0.00896440838051748,0.00264095690604059
"2005/5/24",-0.0418793439190951,-0.0737935968796189,0.132291415651174,0.0347535430710897,-0.0162259547505729,0.0186480367718562,-0.0484622954394179,-0.0496866173240218,-0.052448936990693,0.104365065084352,0.00556218457192666,0.210868786028213,1.39804373664909,0.314146856202206,0.28414546696424,0.496730320334614,0.00497450197018319,0.0442876037184239,-0.00476049374246176,0.0832140660415393,0.0251637543711829,-0.0178042948899355,0.0764267883932543,-0.010367194394439,-0.00021455273525601,-0.00671093673288501,0.00447669436191375,-0.00877225700249857,-0.0165326836331747,0.00079761095314383,0.00547214965911876,0.00183656500854145,0.00714925059923006,-0.012653856827116,-0.121766118146781,-0.00375195092749066,0.00735020696903948,-0.0187325135626323,0.0117638094876241,0.00649433315780803
"2005/5/25",-0.0240509329557994,-0.0812643478724463,0.107191846755047,0.0313646581668806,-0.010741856796548,0.0293012428472762,-0.0418277858598085,-0.0400073724101744,-0.0496698356816137,0.104365065084352,-0.0253461199328337,0.179435635478562,1.39140872793553,0.321055207063522,0.294907796719902,0.493535710966158,0.000187407483391301,0.0402202280191213,-0.00790852593093753,0.0786200611914192,0.030557470505196,-0.0279511056987888,0.0784849421169023,-0.0105320574865497,0.000400636489767043,-0.00510808088597867,0.00515857823765211,-0.00830545533974052,-0.0159863656270351,-0.00149490099982457,0.00633801058557736,0.00231884049967144,0.0116830592933236,-0.0133242643049321,-0.0831013494229452,0.00256913013485246,0.0108609006483436,-0.0158748086503388,0.0142006451597328,0.0101367703424594
"2005/5/26",-0.0256595421722576,-0.0800287849053469,0.101588030592355,0.0210327737158242,-0.0218437281795048,0.0205924808412671,-0.0502329293548033,-0.0448714816192761,-0.0514791962921277,0.10430034015723,-0.0430351696612431,0.175730772822589,1.39801763369557,0.320199687935669,0.289600478960018,0.498800373604481,0.00435876734195507,0.0479157514813203,-0.00235046842383394,0.0845023396590016,0.0250328920557909,-0.0212136584555261,0.0865095514386677,-0.00867272199651861,-0.000130667394011705,-0.00419972040419245,0.00539306087376929,-0.00853566789222321,-0.0165231941540699,-0.0023153175648795,0.00734909579990127,0.00407370877651645,0.00860879794303081,-0.0149275836297894,-0.0924000940777862,0.00518683157563496,0.0100448048020374,-0.018359851058124,0.014121846099259,0.00998908070058537
"2005/5/27",-0.0377753591270285,-0.0790213007851742,0.0967870038554616,0.0320303371837098,-0.0174951063272056,0.0229821109816654,-0.0485189170286779,-0.0474833601150008,-0.0520441992345788,0.102765169198495,-0.0755226277110521,0.167661166870574,1.41588646702813,0.329701441011287,0.287691232992329,0.498775083796123,0.00167693211321178,0.0446877024378733,-0.00393980367912171,0.0766102363756549,0.0424280861295179,-0.0176968376674043,0.0858142577475029,-0.0100444814828343,-0.000320168711502477,-0.00454090734646515,0.00493864362105661,-0.00939224744738107,-0.0153322952116758,-0.001727088678404,0.00592531609401174,0.00188671299252731,0.0186301930042151,-0.0132837076703563,-0.0858521926716876,0.00702840020075738,0.00775778913672842,-0.0218684594469722,0.0124232912071623,0.0107771582608427
"2005/5/30",-0.0276682747631534,-0.0837823862429283,0.0460167214444064,-0.00283849614071646,-0.0361759191843442,0.0175456442850666,-0.060206668640578,-0.0492617830697286,-0.0505693291105835,0.10316774457254,-0.00658668706276551,0.175544555985201,1.43050846173112,0.33018181385801,0.287691232992329,0.500328427283331,0.000370272964910132,0.0456567133278131,-0.00621996066141087,0.0706772942807776,0.0470451397802543,-0.0169692963349214,0.0803818684805463,-0.00955776032638156,0.000163914463362713,-0.0037523109368645,0.00461743040476894,-0.00974668207617586,-0.0155809036041252,-0.000409210955646701,0.00667060607345893,0.00258271390649816,0.01973452348914,-0.0136841022348107,-0.0939995188350603,0.00766440667973566,0.00557719773733877,-0.0228923422376175,0.0117015574810479,0.00805980765954497
"2005/5/31",-0.0174069588015643,-0.0934973447641899,-0.034028723880558,-0.0410492747684691,-0.0558786239274279,0.0100404519496303,-0.0783890607507886,-0.058753286319907,-0.0575973462868903,0.103060856406872,0.0871568380109894,0.207778404919348,1.39248221009898,0.319489515403977,0.28513087307274,0.500123954789599,-0.00718980632675198,0.0459446861232169,-0.010001229221634,0.0677450191267981,0.0431985868285494,-0.0192194841530106,0.0767467524689449,-0.00956978431104539,-0.00190370618731766,-0.00482328593618695,0.00301819793705853,-0.00914111196879305,-0.0153900346407373,-0.000311391232823864,0.00698485023208546,0.00121235873945864,0.0192077692887191,-0.0145158446150089,-0.120380907024845,0.0104442291452983,0.00364085780242172,-0.024919661365566,0.0120759800727093,0.00986987705267581
"2005/6/1",-0.00498899896827309,-0.0995359915334867,-0.0504736588420122,-0.0702922592828967,-0.0709516148334547,-0.00218454926548191,-0.0779329116329705,-0.0706468628638337,-0.0703622660246366,0.101350725795843,0.207053805670427,0.217200625655932,1.41267963526996,0.324957786188488,0.280473467708213,0.494066747384837,0.00357737712400514,0.0621510935266972,-0.00560281602497614,0.0900346673959177,0.0366107436452244,-0.0104344555417842,0.0874847551007418,-0.00759731390826216,-0.00205391899071576,-0.00549644181439318,0.00217411899412699,-0.0102270069428721,-0.0168275816983896,-0.00653417423926113,0.0084063356858399,0.00247138399210927,0.0249270873586551,-0.00934444846633864,-0.144463728369033,0.0108028160823948,0.00614860408064493,-0.0270989908291471,0.00869904802556618,0.00755502152498478
"2005/6/2",-0.00148520241137351,-0.100990295248995,-0.0121337503602814,-0.0558794915731965,-0.064414084681229,0.00702369998737749,-0.076371535700698,-0.061674454818532,-0.0617092396005156,0.101731675850075,0.174805217768709,0.217447180446232,1.41267963526996,0.326101952362046,0.28152648847139,0.495099198777541,0.00935878383038896,0.0665998795972943,0.00372094790680738,0.0978381765485958,0.0380772039267935,-0.00946718670297396,0.0885248507094007,-0.0111288121435493,-0.00236892508818172,-0.00541087119088931,0.00281383522318364,-0.00904260153734109,-0.0182075642502629,-0.00705825692149698,0.00614105774078531,0.000134025970061029,0.019173471347783,-0.00788793051467612,-0.0896164945049982,0.0127086015350745,0.0110530744042923,-0.0226368040262424,0.0114378877462423,0.0111362757189446
"2005/6/3",0.00714282671907324,-0.0999656691702349,-0.045336397928916,-0.0696487201609806,-0.0824133481314035,0.00360280658658084,-0.0767916062146871,-0.0685340255947225,-0.0563084043041788,0.0997451863093854,0.102348882112365,0.214674576919632,1.40687138298983,0.322416151102276,0.278803650252744,0.497980811828382,0.0101014179229991,0.0666860552445939,0.000952420286904614,0.0966722524890962,0.0385756121181935,-0.0160167709995907,0.0886495092424338,-0.0120288451935802,-0.00340314186293756,-0.0054594485334251,0.00384264784350017,-0.00883006689838261,-0.0182222423320193,-0.00618673895088783,0.0061544961773195,-0.000716485506229817,0.0214995176562582,-0.00842745001561569,-0.106737964183003,0.0105873007396002,0.0175340022316268,-0.0178360332562561,0.0123302828684938,0.0104422635397626
"2005/6/6",0.00981512963635959,-0.0961401264651483,-0.0614531266966461,-0.0826831090821473,-0.0881173583366461,0.0179051000165959,-0.0770308908101972,-0.0551884407338765,-0.0376042032149015,0.104662804882855,0.100462897644238,0.21462258337758,1.41093229454079,0.3217389819583,0.277191311507,0.501134404506457,0.00713787419285008,0.0629016768578528,-0.00161412131404155,0.0876838732037683,0.0331649559152739,-0.015136802463814,0.0883653148598894,-0.01034261170741,-0.00413784309248076,-0.00757002593488488,0.00334809784816829,-0.00881020616880746,-0.0188192067385431,-0.0053134301393129,0.00655904132818789,0.000134190531985663,0.0190995533600626,-0.00641189639690024,-0.0772494471464813,0.0123997725734044,0.0176120558801312,-0.0219049389828459,0.00890808631942991,0.00718907751058218
"2005/6/7",-0.00236848891247498,-0.0992407618445984,-0.0811098829573885,-0.0925039413325709,-0.0899333815611948,0.0201006190502162,-0.077025807237102,-0.0415713575730645,-0.032812536293968,0.106187262486852,0.131519139116133,0.21466339401689,1.37958634116436,0.325278529469561,0.28253420341388,0.510031838269255,0.0112423538018787,0.0680385903093398,-0.00236677870411795,0.100264982847872,0.0413556251314005,-0.0143457226074602,0.0880010855681765,-0.0121463261297859,-0.00487397303837692,-0.00775308200514183,0.00395772566949579,-0.00821178918916302,-0.0188632568749709,-0.00986082676694579,0.0053190153289524,-0.00107284706808536,0.0121649799940282,-0.00675955109051699,-0.0748326453933435,0.0106279481109874,0.0150414307300316,-0.0286089911956746,0.0045498204232462,0.00629227111196706
"2005/6/8",-0.00377345177262238,-0.100764721526305,-0.0321324054168773,-0.0939723839912279,-0.0907437075451829,0.0112084483492022,-0.0792560840228454,-0.0563480448879828,-0.047305540832567,0.106421382497873,0.0515598392473482,0.213758303471586,1.39519844352566,0.328378294762204,0.281842490435771,0.508849626668986,0.0112004060629345,0.0727849515992031,-0.00128427045143018,0.100240763706899,0.0410233178290306,-0.0116285013824753,0.0939537837309901,-0.0134342346672309,-0.00470331521746764,-0.00830562907620232,0.00281882203440891,-0.0103890095594388,-0.0187811036360548,-0.00994927619431997,0.00433011138738772,-0.000946451618411599,0.00507988587010404,-0.00772830563043127,-0.100046288601629,0.0101859579203778,0.0121704548580118,-0.0363842564022498,0.00298758361861595,0.00604193077982481
"2005/6/9",0.0020568037229692,-0.10061127995061,-0.0425312613861902,-0.0969627614131456,-0.0906988402512486,0.0143290163186273,-0.0792567916040411,-0.0605917352548724,-0.0492639634277991,0.106775478934916,-0.0147448172989777,0.214534837513537,1.40053020438902,0.329911517512288,0.281138707971534,0.537376439286279,0.0162248698314022,0.0726587915714374,0.00244091587895089,0.10139771763464,0.0444854379583036,-0.0128368512078074,0.0942343549940815,-0.0132111125975417,-0.00425539196128846,-0.00636417894184512,0.000862251909200982,-0.0106639649336086,-0.0190170115002751,-0.0120695369025902,0.00528480753700011,-0.000401497387354181,0.0143098568918287,-0.00647935515487608,-0.108488409902796,0.00434740170477981,0.0143946261576146,-0.0357102085879023,0.00509706441569408,0.0103606015695058
"2005/6/10",0.00603934869774378,-0.101771525205459,-0.0290988136092201,-0.10633730216329,-0.0903271258712506,0.00416567928706891,-0.0778349919609414,-0.0678718060746429,-0.0637900076847692,0.106794021233034,-0.101021225303156,0.184919204976868,1.38476582003502,0.329911517512288,0.282879920881971,0.536849961595646,0.0155521083680788,0.0753309482729336,-0.00144826701236963,0.106002619084521,0.0472531649685952,-0.0122097497572986,0.0950246504101036,-0.0149044512454632,-0.00305748243665283,-0.00657624046979126,-2.1229632022325e-05,-0.0113591664250092,-0.0192356740324902,-0.0102625452923853,0.00611685349815302,-0.000381711126956386,0.00893758741822192,-0.00777271165675014,-0.0839836939187838,0.00398032056825739,0.0150041327224707,-0.0431817337047241,0.00265127460635713,0.00761825063302016
"2005/6/13",0.00489960099163695,-0.101777992934425,-0.0281148779699417,-0.0993592303554387,-0.0735267297879856,0.00370178810421958,-0.081328158995097,-0.0718923922474518,-0.0737236138240823,0.110271203205921,-0.0817235767230573,0.175444437831059,1.45908343357667,0.325270639030472,0.277570523284935,0.528548575875572,0.021266524054617,0.0782001506072551,0.00267512249912978,0.112245922990258,0.0453498794994175,-0.0112472116149843,0.0947325156091785,-0.0115120622580676,-0.00177237435097234,-0.00619560268878904,-0.000648847473850318,-0.0114054437975362,-0.0194428525400167,-0.0158638846926659,0.00981863715228446,0.00120250866553978,0.026662996006207,-0.00272657984478788,-0.0573537582298353,0.00592464028605947,0.0151712389638478,-0.0440005647348892,0.00639738138939905,0.00568142505594307
"2005/6/14",-0.0049360818838297,-0.0986704012540826,-0.0518712150718941,-0.114862491619454,-0.0809278248294279,0.00798158451914898,-0.0809944617275677,-0.0661782124320841,-0.0691468656039581,0.110333469953876,0.0250536678257849,0.197912051622651,1.4570205099541,0.326497893453725,0.280032169228077,0.529341686528903,0.0270457048736803,0.0782546901366597,0.00213488766910986,0.112568403863501,0.0489288841221862,-0.0151821183971327,0.0947567215184612,-0.00899980228999325,-0.00365687795977097,-0.00609348733239014,-0.000576586619783663,-0.00708042355532047,-0.0192349086284213,-0.0135101896505251,0.0115899010900804,0.00288781529149916,0.0266193159713591,-0.00285555825631755,-0.0548141867529542,0.00685327900967115,0.0125063266292708,-0.0422163118539872,0.00432738749664744,0.00304902985370166
"2005/6/15",-0.0199023152805344,-0.101050842389018,-0.0235614359540065,-0.116208026758246,-0.0781470335104688,0.0257882047775459,-0.0802150106010789,-0.0388703257279383,-0.0599755578449511,0.110969268377697,0.0272603913855187,0.194370105650432,1.36001918709922,0.291346204044633,0.277831572611435,0.530869108493399,0.0287371957202137,0.0781848438141855,0.00253398804391714,0.103616147405262,0.0560353975274551,-0.00796276526599507,0.0943771541618078,-0.00542928396459746,-0.00381081121983684,-0.00828835561378698,1.97452671883571e-05,-0.00311538021275284,-0.0193304045470878,-0.0133617925981513,0.0132335343066001,0.00546370539922277,0.0284792786811504,-0.00113411511303489,-0.00980868998563597,0.0096932739929067,0.0165350739513074,-0.0359642861805991,0.0050375075359276,0.0118012878878786
"2005/6/16",-0.0255301618017966,-0.100462842286732,-0.0383827778313497,-0.116915962865905,-0.0814208017490303,0.0296853058075776,-0.0803981802786425,-0.0391910680391816,-0.0545022298217102,0.110997808352862,0.0654788793593014,0.201777924091811,1.36001918709922,0.291691423335966,0.277008988208331,0.488786444405068,0.0342484222186323,0.0790914566315473,0.00623558144218355,0.111375092854142,0.0501228068035628,-0.00567965749289868,0.0943678945651601,-0.00438804029641593,-0.00506215884917086,-0.0062421487940842,0.000405633309664933,-0.00423934094906194,-0.0192951542523982,-0.0147538856507292,0.0133488716547969,0.00521597712473388,0.033458597376478,0.0017963329571206,0.0414363898807426,0.0108625062304884,0.0187176986569935,-0.0316967548744739,0.00537686454919194,0.0133827891066889
"2005/6/17",-0.0135567940701139,-0.0964365676274096,-8.61140439910309e-05,-0.086259107426492,-0.0537882239102131,0.0317692969251639,-0.0745193342741661,-0.0333596871480249,-0.0565507618219304,0.109921370396926,0.0198792918018263,0.183675216969502,1.36094131837421,0.291856577100508,0.27696507033795,0.488103661202454,0.0395144581796879,0.0787090139319391,0.00894893889705901,0.110639529152151,0.051179297192022,-0.00166502966588077,0.0943519760277417,-0.00265734623449373,-0.00372101768600398,-0.00454467076193699,-0.000134321028676367,-0.00428589932547358,-0.0186725677504226,-0.0135330939433901,0.0155056958299685,0.00758531355527851,0.0419399618702462,0.00257391423883644,0.0565309479533139,0.00982007193219261,0.0227145627502979,-0.0245481711555518,0.00707749008757612,0.0155579605630309
"2005/6/20",-0.0270683484105711,-0.0941186847932842,-0.00201308221064858,-0.10088063387142,-0.0572231559266803,0.0324966922732352,-0.0724857815828457,-0.0327416333715397,-0.0605491244119587,0.111839798641761,0.0100851485628503,0.173679836229497,1.32100748705254,0.29145801354799,0.275613025744818,0.485358989095905,0.0415299302508212,0.0786664100608498,0.00890001466833404,0.110592225186867,0.0510935490576751,-0.00599618440237343,0.0939107460812552,0.000587280831995299,-0.00372306117341465,-0.0036811113009412,5.61416121920177e-05,-0.00460951290372303,-0.0186306074493247,-0.0142666352539403,0.0157824430399805,0.00983900046073277,0.0503238342288254,0.00385662898166051,0.0737130757619484,0.0123987208449579,0.0219153460080261,-0.0208352085038156,0.00729111383908445,0.0161534607375367
"2005/6/21",-0.0153212467773216,-0.0937930128164585,-0.0411442247800983,-0.0978114844501649,-0.0729827953087988,0.0448117222102807,-0.0723965394459087,-0.0226344391102973,-0.0346663945366957,0.110358140432089,0.104810052030187,0.209647501799939,1.26851455088724,0.276454211370587,0.269149949987654,0.491276329796246,0.04784653798867,0.0787212277668241,0.0133845367828097,0.110639318674057,0.0702667425761283,0.00246131780383878,0.0924775245748155,-0.000220780232556721,-0.00334435722122539,-0.00296055402605082,-0.000290616374676515,-0.00406248207486243,-0.0186584727989681,-0.0177770855351536,0.015777961009102,0.00987467673869613,0.0455719662024501,0.000856852120681573,0.0895337941252982,0.0120651096212221,0.0288027601802172,-0.0149852392847877,0.00660749101872149,0.0166517940834964
"2005/6/22",-0.0325120316440394,-0.0937855842195548,-0.0237552498209999,-0.0941998099809687,-0.0692995723038292,0.0463091498338553,-0.0721748101486517,-0.0280527478506508,-0.0406713691731669,0.111682642232683,0.225353979029586,0.20589189807723,1.27827179082884,0.270120567177884,0.256240647137767,0.488010742277966,0.0515757977430451,0.0787903098677902,0.0149085333418053,0.110833685278106,0.0844280153772509,0.00449406007838073,0.0929310709342779,-0.000965932265292613,-0.00437979941093764,-0.00225572216018848,0.00107895318531351,-0.00334641029390659,-0.0185467219963918,-0.0167950179870283,0.0161860315965626,0.00934186359047779,0.0424393530873036,0.000318385642773312,0.0927203750260592,0.0105458356200199,0.0247288402285967,-0.0145862253601659,0.0038499382935015,0.013729444074077
"2005/6/23",-0.00466162655700983,-0.0935305397143466,-0.0363614930909604,-0.0971032953614567,-0.0790904243053539,0.0364554385509027,-0.071844883624985,-0.0390117547247281,-0.0403783378173851,0.112379470986352,0.174728801769523,0.207801936410425,1.29324279583386,0.271947397797649,0.257557694847675,0.461939760106774,0.0319005655921544,0.0796016679735676,0.00568853852155243,0.110950378289526,0.0863288473919353,-4.95179264012408e-05,0.0927731543973397,-0.00302279088946773,-0.00240419434599277,-0.00142692120792157,-0.00010818123404567,-0.00409823520932787,-0.0185362271519167,-0.0180663599301039,0.0165953781899245,0.0104042845093533,0.0396951850340429,-0.00137844902953271,0.125727774788401,0.011130823053463,0.0199383173781419,-0.0216063160463376,-0.00226154220810165,0.00990349889331881
"2005/6/24",-0.0126976066145439,-0.0907088006170351,-0.0397265706342633,-0.0901231061494161,-0.0612588171746141,0.0354360513137038,-0.0725691259635703,-0.030914487324773,-0.0440835079454775,0.112362097641035,0.199639936670642,0.207745412054605,1.29562553522766,0.271347446993521,0.259963330296839,0.460459082024372,0.028158112207868,0.0786345214106118,0.00326892786448204,0.109288848307184,0.086342640908718,5.56595048347404e-06,0.0903256796571457,-0.000620747085785087,-0.00108723824210798,-0.00054120519736734,-0.000438732331272375,-0.00419424939769083,-0.0191617047041385,-0.0176033066095547,0.0165686661711351,0.0124394028955768,0.0379321094612237,-0.00272024948247914,0.146019564350137,0.0138791688923385,0.0268084407220417,-0.0159904817672394,-0.00353220410424771,0.0106687622458401
"2005/6/27",-0.0237021695489903,-0.088747347696116,-0.0334665647266288,-0.0766444820811628,-0.0480396461345053,0.0387871537567663,-0.0662000363440494,-0.0220773171718593,-0.0461308787411656,0.117857560680402,0.221624109615245,0.207768341843235,1.29398728286263,0.272361548660612,0.260880894024773,0.457021102085462,0.026129826445286,0.0765398517539485,-0.000411673405307726,0.107604313634209,0.0857763920247633,-0.00430399726592896,0.0918770429633873,-0.00359030842709301,-0.000123044663045198,0.00354215369685837,-0.00080827064319347,-0.00380736188239534,-0.0185903449192146,-0.0176201924847033,0.0127572549115177,0.00685974409053977,0.0414547801236986,-0.00399176088807319,0.151606939356354,0.0135526256574091,0.0284310900396528,-0.0192879724931178,-0.00391766704870966,0.0102872361906257
"2005/6/28",-0.0146558609121155,-0.088773058556467,-0.0247353434440666,-0.0808888725130767,-0.0480467609431473,0.0315251301197813,-0.0721476014121847,-0.0321150783732691,-0.053362949008465,0.120473184147734,0.153751130656273,0.204018515132833,1.27614876695727,0.267691910321727,0.25568740681335,0.464809156839724,0.0330374840189149,0.0752785902622885,0.00209589432728681,0.107238463113788,0.0854980584212403,0.00164451166406079,0.0930913533130359,-0.00440362474314875,-0.000543207461031738,0.0016629894678226,-0.000811326445355678,-0.00474767356740993,-0.0180706485560585,-0.0214228744430624,0.00902086760579924,0.00596533136523186,0.0307677849028621,-0.00520011568598408,0.1163985649582,0.00791796963507243,0.0259135686628789,-0.0245666680005566,-0.00269259608378476,0.00304160316153179
"2005/6/29",0.00775389975472988,-0.0901039025071581,-0.000107109146535171,-0.0667483067995501,-0.0468393741955219,0.0297422570275114,-0.0727196164680787,-0.0448803869006743,-0.0617928249052953,0.120847096132466,0.0994709049746365,0.204498155662599,1.27416800899302,0.266648384916884,0.255736338080707,0.459956282761939,0.0257621307063022,0.0753224459193404,-0.00201087408595055,0.107022336086857,0.0858805024848971,-0.00282772748824415,0.0931241662315753,-0.0041246762520896,0.000343217646220135,0.0015734038857398,-0.00150244516496832,-0.00648284710071725,-0.0182197764670216,-0.02190065051165,0.00992605763113275,0.00753217394539779,0.0216367435174847,-0.00471573622122286,0.0998159598093606,0.00510607505076897,0.0231784327289016,-0.0246036582386058,-0.0040914755846097,0.00295766407720991
"2005/6/30",0.0230569643702267,-0.0897972109453975,0.018252315255365,-0.0423060195601754,-0.0333752979787498,0.0290787031644011,-0.0725410733142943,-0.0563197744210998,-0.0657448523394636,0.12232305383969,0.0958686465537668,0.205625131765028,1.27013612246498,0.2654345542467,0.254276892726188,0.464258527745985,0.0192984634396506,0.0752870010958663,-0.00696725800249269,0.108124764739631,0.0835229804841723,-0.00472666143802185,0.0930145006965084,-0.00538564382522169,0.00205197578951214,0.000615686587995446,-0.000683997329017469,-0.00836504715501277,-0.0180771977089528,-0.0208273771446571,0.00686373800673043,0.00528315834604812,0.0196179560014478,-0.00669083814629481,0.0984327629776117,0.00503477220985282,0.019602204495024,-0.0277328804962524,-0.00449320661520608,-0.00232708679737308
"2005/7/1",0.0398352343474906,-0.0895687416601921,0.0265939026669106,-0.0320170227096075,-0.0329550111328712,0.0111941333009671,-0.0700721743949696,-0.0713713415906943,-0.0771697540660782,0.12141450251095,-0.0161091058095154,0.156084129420446,1.2317080599612,0.264236739548579,0.253863687658624,0.463389181353351,0.0262104085162451,0.075067109770015,-0.00655615949785787,0.106110684482316,0.0810414578914962,0.00393148069777711,0.0926985101101539,-0.00325180462373928,0.00105812358582189,-0.00056622360202403,-0.000420094631255418,-0.00864232479745071,-0.0180035247192767,-0.0209152924375688,0.0102038199491745,0.00774042887724559,0.0310872564516018,-0.00421990931202148,0.0369316880437172,-0.000117737832735673,0.00960057710649543,-0.0335559513275352,-0.00435571662518968,-0.00774610359176429
"2005/7/4",0.053215216203664,-0.0895278869738041,0.0433337473982776,-0.0322767521142804,-0.0383321064256528,0.00871057609684173,-0.0707088554915623,-0.0831417630671097,-0.0785632248076415,0.120840319590334,-0.0421342331829127,0.146097246645587,1.20312022896093,0.26303476875002,0.252986343925049,0.444650564533465,0.0233868315012934,0.0750764629589629,-0.00654455701767763,0.105636897039102,0.0806029020920808,0.00538341897707995,0.0927127392436686,-0.00367074434293774,0.000970753065336382,-0.000137712086453985,0.000100750681935563,-0.00876990929944953,-0.018007413746922,-0.0205727708436794,0.0102719546953476,0.00747829093720374,0.0307671157572346,-0.00380657532240687,0.0293275507571481,-0.00163847061657379,0.00981511345785897,-0.0339050998806097,-0.00817232389040806,-0.0104789098900397
"2005/7/5",0.0415361080686889,-0.0837726706956534,0.055483516258975,-0.0169416010491409,-0.0320998762791976,-0.00324244364858083,-0.0707291495299449,-0.0886551001884508,-0.0786283708712703,0.118937176663713,-0.114510179213227,0.103594764308564,1.15937703778261,0.258006294018372,0.247966083413161,0.445738496647027,0.0286823508225994,0.0757631400593768,-0.000164253050115214,0.106820736476963,0.0770309808148747,0.00706492816100265,0.0933001736030461,0.00157206088055627,0.00161313124622577,0.00205338171533029,-0.000947897963927139,-0.0104323196991592,-0.0174953664919957,-0.0183326036706125,0.0112810765977158,0.00978524730912672,0.0389147654029243,0.000344745015532961,-0.00544927622008042,-0.00271810558081141,0.0138861624090379,-0.0312952175020746,-0.00445419132184323,-0.00989908629634666
"2005/7/6",0.0495497686138325,-0.0762626176814842,0.0659913089060712,-0.00347207312730409,-0.0236154561203724,-0.00883098349866806,-0.0708116542205291,-0.0892054870168027,-0.0787436683042291,0.118960546536257,-0.136866923037467,0.11021428141634,1.15955572573099,0.258785369754469,0.247618464781078,0.443561666912395,0.0299396698022773,0.0757438181093681,0.00132313076319102,0.105355329738704,0.0765911381133224,0.0109768143290304,0.0931343443422138,0.00172221292679833,-0.000155318244701411,0.00303000201329636,5.1271570019847e-05,-0.0114645568935145,-0.0165004015199885,-0.0151849768600943,0.0109805630699068,0.00909628267899514,0.0549598222400954,0.00236389993044568,-0.00637504025547832,-0.00140997512412896,0.0203918533354263,-0.0197953619721505,0.000696672037628882,-0.00127860886665285
"2005/7/7",0.0706208568149422,-0.0749176393678723,0.0320688902010925,0.0168626036119215,-0.0257912365135709,-0.00716491911040936,-0.0707443346482583,-0.0887601849007662,-0.0786608371677991,0.119164849225033,-0.153797469758363,0.102016183233013,1.13068877755317,0.25654845362137,0.238775862749466,0.442447353806262,0.0494044210889766,0.0744447303716509,0.0237759090059515,0.0987939801486759,0.0600767775102717,0.0160823392422877,0.0904024250837435,0.00156448986238593,0.000437979715541793,0.00424710816645129,0.000859194813200961,-0.0113142549082354,-0.0159450552768309,-0.0183582245138221,0.0108061683021079,0.00927386909042707,0.0502324709600886,6.75267078088277e-05,0.00917214821117564,0.00161799904213375,0.022200594338835,-0.0181857562663241,0.00115321230086721,0.000926580385874205
"2005/7/8",0.0722193778713252,-0.0877142871994143,0.0671334536608503,0.020183154932005,-0.0272768056419597,-0.00569178544745112,-0.0705933350818974,-0.0885569269155403,-0.0790939381633943,0.119694534740924,-0.351570731628886,0.061345007922687,1.12749402941198,0.259082732830755,0.239936866938268,0.444315009121787,0.0786641106362085,0.0793085922967285,0.0533206524106781,0.0964983964417123,0.0617926352378028,0.0380341873066071,0.0890557175294426,-0.000281479219870296,0.000582555975160188,0.00705725249970904,0.000197534226270445,-0.00990861676943506,-0.0172853473715727,-0.0197577029130199,0.00934191376981165,0.00786454553971533,0.0437403525891778,0.00107304961852822,-0.0203206844392055,0.00101882452671898,0.0237250588738438,-0.00749021517319098,0.00208887434458905,0.00218863540336787
"2005/7/11",0.075663096886738,-0.0908986732478093,0.072727553873266,0.0127497038314478,-0.0240117074344927,0.000498042255855253,-0.0703427876054814,-0.0848347343674245,-0.0790017831262149,0.11673815592514,-0.327095410539345,0.0638590363734496,1.1151986912478,0.253283851180917,0.230134005211645,0.444423142736565,0.0840481441160041,0.0838815918064445,0.0629492030899289,0.103590068761725,0.0868130019742842,0.0471167468691093,0.0947610998749435,-0.000242159171271734,-2.36323045454833e-05,0.00615924448408574,-0.000795775289856652,-0.0105563860102069,-0.017219190193847,-0.0248227238915461,0.0102869522986545,0.00848298454216012,0.0392994450280674,0.000619884468160324,-0.0110696149518968,0.00231653728601187,0.0251200532217238,0.000677468978442981,0.00285737149653078,0.00593298757196897
"2005/7/12",0.0931084123117936,-0.0908159565832301,0.0892804418902857,0.0191028617261409,-0.0185309566277217,0.0129843069149124,-0.0575818111177347,-0.070784747366009,-0.0676568923851806,0.115498619352408,-0.367040933023133,0.049082007996366,1.06258997733249,0.254314752172091,0.229317442694401,0.444543104098581,0.0811077049580431,0.0839362916550948,0.0614977259130282,0.103632016196226,0.0841089071507869,0.0403010374038088,0.0959782164874091,-0.000878820728735851,-0.00355614080424471,0.00580640193506854,-0.00188264379633795,-0.0107866933250307,-0.0173984239127791,-0.0250898818519586,0.0105448648176487,0.00852187854486378,0.0408807283562193,0.00299902377715431,-0.0114339721749243,0.000911350402182093,0.021771483794861,-0.000134093588497951,1.95266247099148e-05,-0.00054501845876786
"2005/7/13",0.110315314823105,-0.089195467445073,0.124003757080867,0.00988359668666457,-0.0216401504341479,-0.00172051913568078,-0.0644404381416023,-0.0808343711504652,-0.0758107345410335,0.113297787372387,-0.371305346896108,0.0396418896181688,1.02518579386893,0.253710190344751,0.229867260407037,0.414358556081016,0.0884562206798034,0.0870294643113918,0.066252694678583,0.105428591130987,0.0867016551963808,0.0423039233737892,0.0956763719628662,0.00198363521163006,-0.00405833613759165,0.00582386947349125,-0.00235868040307318,-0.0116131413317675,-0.0174157578234636,-0.0208938489961682,0.0110713492813984,0.00982167901628819,0.0384378530677493,0.00365780756627334,-0.038245831521055,-0.00014089115462556,0.0180878825976797,-0.0017601204560881,-0.0049024380738673,-0.00416998824105776
"2005/7/14",0.109427390836786,-0.0906167067397886,0.122830406897629,0.0168627526929878,-0.013175725925396,-0.000269501538693119,-0.0649428090796687,-0.0814447939283743,-0.0759838039216387,0.114301648832762,-0.313356927326044,0.0525326128658309,1.02930900509677,0.253710190344751,0.210450451662714,0.439028655410627,0.0949610037713579,0.0911132672824122,0.0733366310603841,0.10559044084963,0.0865413949269047,0.0473579722293056,0.0951893622342398,0.00405610576905133,-0.00217835840649818,0.00569839472700912,-9.3245898096366e-05,-0.0114684206583509,-0.0175423512383937,-0.0227959545987064,0.0111005687227313,0.00907883538023178,0.0250268484900128,0.00422902375515245,-0.0617874087736369,-0.0011590941181379,0.0217498111063239,0.00517894362594604,-0.0034979813243293,0.00073760501481257
"2005/7/15",0.10773449432022,-0.0915874667853071,0.137063742853925,0.0161059060987817,-0.0211970176214095,-0.0063167103087421,-0.0649439189283948,-0.0819842461939807,-0.0781554203366031,0.114188130594794,-0.371394743750316,0.0400468867690572,0.942873267551542,0.254440390664139,0.215180375795973,0.370799539452178,0.0954750478415613,0.0911621387381487,0.0809362094423413,0.104867938189897,0.0868555518173452,0.0559005360204634,0.0959753960400041,0.00640455970951953,-0.00231498610277331,0.0066131315332234,-0.00213537175243514,-0.0107336949386795,-0.0177885547149969,-0.0282328732725839,0.011118792388239,0.00980502313988678,0.0260317012110023,0.00326248425418958,-0.0632039376346797,-0.00228600225897736,0.019956978282953,0.00292831695337688,-0.00424007843846728,-0.0045185251115487
"2005/7/18",0.0988189077043043,-0.0913655026464103,0.131757133282993,0.025132303098895,-0.0181086254824813,-0.00141478301111564,-0.0649857525979714,-0.0819914222698456,-0.0783878128807374,0.114188130594794,-0.377874224767166,0.0282665612665125,1.01788520964225,0.254941647241181,0.226353310356708,0.35722134928354,0.0835481487455852,0.0911854502064075,0.071798930324764,0.104417043258596,0.0867351357606879,0.0459454745589008,0.0965142272101949,0.0055229931141171,-0.00461755127701415,0.00792391691189844,-0.0047459970846005,-0.00731959505402707,-0.0175328590630265,-0.0307733016346156,0.0110995024148162,0.00997324648785717,0.0209590770871068,0.00245075409449867,-0.0647936792043198,-0.00162667203574691,0.0212166101148209,0.000339469586002782,-0.00661663037810593,-0.00881358292329194
"2005/7/19",0.102975647197091,-0.0910784296404234,0.156509438985011,0.0284742977182098,-0.0104836990441986,-0.00274386135945601,-0.0649880688314193,-0.0817126018085512,-0.0776586299948134,0.115251654318036,-0.333708128189761,0.039619573223671,0.951028797337002,0.254683231509554,0.210067692279215,0.359518806584221,0.0936788026678474,0.0900741526918383,0.0821033889886121,0.105260836933859,0.0877609333419617,0.0563201302992126,0.0965448243899952,0.00203747069292877,-0.00717400228398506,0.00762779623778786,-0.00736666065505228,-0.00830799228996566,-0.0163924621275844,-0.0299369961844989,0.00855426514737539,0.00709940567493718,0.0235485666000558,0.00187831072670373,-0.0801995726514438,-0.00236697853330744,0.0262818496638601,0.0037701952747969,-0.00714583022807537,-0.00104162618747483
"2005/7/20",0.102174428939967,-0.084272540598094,0.137216983373985,0.0559103741970842,0.0123891978225357,0.00257477895869371,-0.0615057651343336,-0.0817716992950835,-0.077792567493369,0.114917302181862,-0.363571427389298,0.0446004900479082,0.956542278648682,0.25516143084936,0.18988967820365,0.35306081263024,0.0917939964719109,0.0917483558731811,0.0829345412836102,0.110088108874246,0.0877752844392896,0.0568086165077479,0.101653800737187,0.00121323979555829,-0.00704590368443933,0.00486217872670726,-0.00620447773477553,-0.0109285223253058,-0.0156072027639229,-0.0282650549280611,0.00886371856964283,0.00784688418816575,0.0284488925700762,0.00307051138923663,-0.0516508026063891,0.000946743225289994,0.0317262629731509,0.00873847791089594,-0.00406356762263225,0.00536840346777473
"2005/7/21",0.130008209024022,-0.0880747328891345,0.149758048496758,0.05025444647082,-0.0162375544745352,0.0132054271153234,-0.0566734849266644,-0.0791419417771037,-0.0552898114228804,0.11778500790998,-0.513679410083496,-0.0139397663995748,0.921030486000582,0.25631906337515,0.179343528969724,0.398629428705192,0.0986560655328909,0.0919016779898485,0.0850206011554761,0.110181585927579,0.0880955453457434,0.0563742303745628,0.100647618616726,-0.000496799417107259,-0.00615965887651411,0.00814549470624841,-0.00566049340990048,-0.0115250772454505,-0.0162196109093389,-0.0275115554839805,0.0080794936562964,0.00726138643907873,0.0219211739261813,0.00161959153778813,-0.0153157657637049,0.00618695186745512,0.03009534953601,0.00399562296962769,-0.00810818002684839,0.000405622931996341
"2005/7/22",0.127514504492327,-0.0877784382662117,0.148521523736439,0.0514253059282033,-0.0024838095840993,0.0103240980732822,-0.0606863203797697,-0.0778321615034497,-0.0672152470971657,0.12206437258692,-0.432723128034197,0.00545464700639763,0.990830361126944,0.252119207683458,0.190233569525844,0.435357282245831,0.0946111086666947,0.0917369956078486,0.0860080851528093,0.10985207948638,0.0878695072919315,0.0488441933625485,0.100634522776938,-0.000652452462759534,-0.00538694102374994,0.0075757686402262,-0.0058488072607631,-0.0114862696689754,-0.0168937295271637,-0.0275758477478066,0.00818545954520281,0.00699430870949975,0.0393372704793262,0.00326150717546621,-0.0345233831314833,0.00644382462313023,0.0338820011083784,0.00649407154133042,-0.00610975399984153,0.00294930286836128
"2005/7/25",0.117148230936122,-0.0878376956712253,0.12318358143573,0.0389227062926132,0.00158182277147337,0.0143156432996051,-0.055150418505983,-0.0775176174023499,-0.067859751050363,0.114631730972158,-0.469643962429932,-0.00637050513500095,1.04710331432384,0.25195326498818,0.204741087997048,0.418054452593117,0.088363370851468,0.0920078130086723,0.0834624307592523,0.109390845492219,0.0878915753009212,0.0432323133622268,0.103971696481556,-0.00123561825470527,-0.00533412994674109,0.00996366244978782,-0.00471706789811789,-0.0116032240004404,-0.0179726402477765,-0.0277983741847014,0.00786904792543409,0.00692380251958763,0.042267503260074,0.00282859081849642,-0.00626513723284776,0.00928421156467097,0.0356495769162247,0.00809947603275867,-0.00698497922473598,0.000177189875469813
"2005/7/26",0.105903587814356,-0.0901872642033653,0.11464817477566,0.0354413538018547,0.00581208100740063,0.0143165290279949,-0.0580732039361206,-0.0772713998978944,-0.0667829699918338,0.11280318464137,-0.451388804955948,-0.00515407658190615,0.951200826267366,0.252218930822305,0.180492081992164,0.398458243515551,0.0869119300892208,0.092233331538916,0.0826197581326631,0.113080559977639,0.0878077163405357,0.0452457981137486,0.103867632137881,0.000621937611633694,-0.00387460130488541,0.0121163772733851,-0.00439310780541947,-0.00986326747682901,-0.0178527640733397,-0.0273262432511706,0.00847168257599304,0.00610962426798673,0.0486720680347093,0.00385200248866841,0.00185869389991669,0.00727671565396056,0.0353281365650678,0.0091783201102894,-0.00700998957578571,0.00181532174777667
"2005/7/27",0.112293929218927,-0.0831041158670619,0.124462340629843,0.0361551922727674,0.00888977912302507,0.00754872135925173,-0.0571851680338686,-0.0776688523306313,-0.0673790223382125,0.113708541226338,-0.570360929094326,-0.0225999459807074,0.921364747254475,0.253484588698318,0.18596955844529,0.359084211520982,0.0902786418880221,0.0934230586944113,0.0865197321326701,0.113503994945548,0.0882051186463484,0.0511155708607756,0.106482453464016,0.00160347502009254,-0.00431604463847694,0.0120398726149049,-0.00600903938771233,-0.00728017078771795,-0.0179002268486004,-0.0241820306601893,0.00795486037536239,0.00565260739575032,0.0511213510589321,0.00516218652268438,-0.00217796216174368,0.00568897451517178,0.0402829725520968,0.0171611890722203,-0.00730105916653985,0.00786064731212124
"2005/7/28",0.114786619562136,-0.0783718045370456,0.0982032860512529,0.0349521975840792,0.0103588145441248,0.00753653802074322,-0.0535895121262373,-0.0745313027882528,-0.0671943697030365,0.113113633915937,-0.581202721927587,-0.00028821662898583,0.784087649121733,0.254180357022153,0.181193372890884,0.366133008308166,0.0967190105029965,0.0928452946039182,0.0864664809639515,0.113681421661861,0.0906370803180003,0.0512514821892523,0.105215568795529,0.00228516477412157,-0.00383956648277723,0.0141524872176747,-0.00513032262303303,-0.00793869279288462,-0.0176643653155436,-0.0203154503348539,0.00860906478234197,0.00593240476317241,0.0502364170776591,0.00631839012115359,0.00659022380530706,0.00506712143095692,0.0403169919491562,0.0172025259671376,-0.00488289905889269,0.00819485802161628
"2005/7/29",0.126731931463685,-0.0653803118029787,0.109275072827853,0.0341433176460712,0.0191783409847244,0.00607621863435058,-0.0488924565138892,-0.067417001087021,-0.0675073877679922,0.114598834484186,-0.595025928208831,-0.00989419112966038,0.846494773758945,0.261717888204393,0.209671876416324,0.32273137010237,0.0841789538062923,0.0926375404553404,0.0778736749343405,0.113784916083103,0.090649773215453,0.0436929371446045,0.105348954328327,0.00160510097194209,-0.00310037669007254,0.0120025474160737,-0.00442846006280393,-0.00695570003984589,-0.0166648896175353,-0.013487965280996,0.00706779423859865,0.00431080219821403,0.0528652478707035,0.00863634627774557,0.0341304109339123,0.00667538508207422,0.0388060200999244,0.0170727235744205,-0.00550854982957315,0.0103981527098919
"2005/8/1",0.130701907131464,-0.0798150915205368,0.0725762371414435,0.0280819157594357,0.0164942612546017,0.013068145904337,-0.0480226064323082,-0.0623668487106789,-0.0676110007224108,0.114994384821601,-0.607740775698942,-0.0269904658173223,0.701254798534323,0.25808639770059,0.17898656053739,0.316574896789978,0.0811795410440638,0.0925620108181849,0.0794544548882753,0.11419466003542,0.0892898294724186,0.0481820675048549,0.106298347181104,-5.87294897077876e-05,-0.00502659509778426,0.0125789972229531,-0.00404477329231321,-0.00680240844698385,-0.0118306947392832,-0.0145892614070336,0.00642407173371934,0.00281731340088979,0.0562497894613071,0.0102416833081969,0.0303363362920123,0.00476860369994206,0.0396115871253771,0.0172284292881756,-0.00569181335221823,0.012378315875914
"2005/8/2",0.131330726192337,-0.0890444954675705,0.0769863353038663,0.0201649382740139,0.0065352183903419,0.014387508169368,-0.0525911413839916,-0.0621525443535013,-0.0667341575915782,0.119504611710815,-0.738989684581956,-0.0530778948159621,0.583359138061377,0.259214853891469,0.148586836617572,0.255058191255369,0.0968358613087302,0.0960342227137916,0.085428453855911,0.113685474574621,0.0893683930735655,0.0582360896861815,0.113728885037768,-1.02122188322977e-05,-0.00688029005376958,0.0139063942803237,-0.00284929708493,-0.0061877255417739,-0.0100995899645867,-0.0167812888020464,0.00783729299476625,0.00538711444299066,0.0602439794827816,0.0117009701089574,0.0245235719941811,0.00259067310350339,0.0386254210196475,0.0188063399310074,-0.0100866484343926,0.0126160220730821
"2005/8/3",0.138560433574836,-0.0851293690726319,0.093641869480163,0.028994844907851,0.0133364383916282,0.0242717252075781,-0.0371104044950662,-0.0497026277322867,-0.0616682619095308,0.120259833010507,-0.669090270575394,-0.0355369195936245,0.641121874306485,0.262473292078559,0.135688459959834,0.222551692979904,0.097043062025209,0.0963565472598949,0.0859139771508122,0.114250062879376,0.090505940581358,0.0540708845115636,0.113416886784337,-0.00126486011952173,-0.00763833910573516,0.0152144615722716,-0.00377971703352659,-0.00564663068106404,-0.0132055966020711,-0.0177328751856728,0.00571927568425061,0.00365487184345607,0.0528838176511953,0.0121657755330557,0.058392494624979,0.0041300490420907,0.0409992606270582,0.0242811258225848,-0.0080898183379038,0.0149171997351329
"2005/8/4",0.141059784282521,-0.0833936428554246,0.115400023291346,0.0414984459221672,0.0190968879156298,0.0315944296052337,-0.0294304732874833,-0.0466685538094824,-0.0594707906106278,0.120161323036973,-0.707615837235358,-0.0393135317264758,0.708358554821267,0.261920888430769,0.152559166446966,0.162166061051666,0.0956927868490046,0.0903686200054088,0.0791962581747123,0.113836081635881,0.0907098377295704,0.0508555351682763,0.111810879931698,-0.00158442540559688,-0.00686283154318684,0.0174925009495046,-0.00349178064807789,-0.00604021200571423,-0.0127940111867811,-0.0223658250673886,0.00565288914090111,0.00348145711641962,0.0649443521580736,0.0150351086638601,0.0929537755381319,0.00389124602775561,0.0432111613004674,0.0206612926192525,-0.00850996960478032,0.0171283606921066
"2005/8/5",0.12955223391368,-0.077217800070734,0.127328917451783,0.0367768993612382,0.024012242431047,0.0303854845636938,-0.0261773729844789,-0.0407302315676934,-0.0608322708165017,0.119786361704315,-0.805905490791772,-0.0589382109224528,0.72816056340991,0.260116921066829,0.123036709981429,0.180020928367233,0.0847696088858645,0.0896912152214588,0.0761357542294958,0.114020697185149,0.091898773007398,0.0389165005414048,0.111810879931698,-0.00208716511013619,-0.00635234257606903,0.0156092112159478,-0.00349129407290933,-0.00593751008103049,-0.0100849103627575,-0.0205327445922998,0.00534177091056466,0.00275784220513917,0.0690277608404934,0.0168595087686699,0.106394987413349,0.00232812170021679,0.0465535361761691,0.0242125919505655,-0.00796823001920625,0.015552473069222
"2005/8/8",0.0910265287032082,-0.0742100028292904,0.122123678915091,0.0231091705917478,0.0302361031418583,0.0284606063542393,-0.0280512301441264,-0.0336565567806327,-0.06756393051163,0.116892268481198,-0.870773930015021,-0.0692482719382641,0.739440947921267,0.259890857016179,0.136789273818626,0.189971276150129,0.075375220164732,0.0898817712279137,0.0671614779759447,0.113557569996511,0.091445584273515,0.0394867558267585,0.111766897748539,-0.00214541189986833,-0.00623766832471564,0.0162906378336959,-0.00384242094308361,-0.00770391500280699,-0.0117811427662304,-0.0232377640437027,0.00503257844989366,0.00233191318926103,0.0766839687023458,0.0172398031569013,0.0890442955611741,-0.00161924423204294,0.0466619729484516,0.0226646468318055,-0.00492402433467092,0.0156789066119884
"2005/8/9",0.072528697380828,-0.067400385413077,0.140921600602783,0.0138583300372624,0.0280372048376686,0.0228429351631662,-0.0303901754124878,-0.031669910650738,-0.0686842726971067,0.117142688690428,-0.80062181391951,-0.0586544910057366,0.682253535730492,0.259819952295266,0.131188768860166,0.201890336555354,0.085218657531061,0.0870107121888882,0.0706170454339315,0.113727488020714,0.0987481400675375,0.0594432437081169,0.111887443250401,-0.00323332788875634,-0.00772263922901652,0.0137358534997908,-0.00351536648637269,-0.00768503209968156,-0.0124117089446516,-0.0247638558974422,0.00335176969871646,0.000116479638632572,0.067690394132056,0.0158519382450379,0.0728005188198723,-0.000720648881428794,0.0425902458224806,0.0126645624290041,-0.0061499059687388,0.00923249857037817
"2005/8/10",0.081282887650292,-0.0776495610977802,0.123450871383215,0.00446402715282809,0.0103706852404532,0.0262978211750143,-0.033341180967476,-0.0296388549030306,-0.0549049540352181,0.115877830393873,-0.860643552993292,-0.0770480202460785,0.772819093487848,0.258894046354687,0.133667303217469,0.11008156864019,0.0771795999546238,0.0922180354493885,0.060206810969661,0.117393435361767,0.0913751173150321,0.0684691051426457,0.113541643064645,-0.00271442820086894,-0.00853275230677396,0.01193781707003,-0.00299009374292759,-0.00880158430706389,-0.0141754343300236,-0.02461198982435,0.00274188978631282,-0.000286359717420785,0.0838845548696738,0.0180352820600787,0.0785461893220531,-0.00071230704647797,0.0447408350554641,0.0181420572275757,-0.00377422979452669,0.0103521254292185
"2005/8/11",0.0844307444569661,-0.0874008936031296,0.0804334386981946,0.00153266794720702,0.00285681533928636,0.040718237001873,-0.0243275596145675,-0.0150731807250767,-0.0389683268840725,0.11199432171547,-0.718765194431391,-0.0389315208277197,0.867631115896415,0.258894046354687,0.158797834311754,-0.0278719528867832,0.0773255495433414,0.0919375287727248,0.0517864235078853,0.116216599030065,0.0916937931663979,0.0759955334836456,0.113420835883816,-0.0021731528489777,-0.00833220980952161,0.0127376578853563,-0.00267271585795629,-0.0108854662392404,-0.0146363934852948,-0.0222265445186515,0.00304557212853201,0.000117146305750689,0.0846820000304322,0.0186610009256724,0.135146124136139,0.00390680436161798,0.045108196901842,0.02665289532434,-0.00142551091579438,0.0161462727705872
"2005/8/12",0.0598682808605106,-0.0882497142851959,0.0575314617890662,-0.00523774959512427,-0.00475847553723838,0.0371884153782638,-0.0257143852735928,-0.0129581133027636,-0.0340203068548087,0.111924696596761,-0.599883724824294,-0.0167486038763318,1.02777616080286,0.256393740915342,0.178927206486538,0.0493992838945602,0.0591899953600676,0.0910901579418743,0.0432847543616027,0.115903297311789,0.0918144811019732,0.070808299152298,0.111751640049706,-0.00518885067872695,-0.0095884050124935,0.0129004391308507,-0.00294740305988167,-0.0112906782364168,-0.0126159658470633,-0.0275385334507828,0.00211517736464507,-0.000643860252965627,0.0845377996311006,0.0185778976545002,0.152738326501296,0.00463969142632611,0.0449186635110933,0.0295020448262483,0.00149898915957534,0.0170466367812011
"2005/8/15",0.0519701710186943,-0.0855350899242136,0.0605592615643774,-0.0132693694460933,-0.0105864856143879,0.0301874295647695,-0.0320080714433851,-0.0171350686504565,-0.0362421406274878,0.110094550571677,-0.65896072854576,-0.0362106314542485,1.07543960495091,0.25930896919768,0.174061422080134,0.07009392658873,0.0657985568873895,0.091184150837266,0.0486703922093057,0.115943646987704,0.0918700797505005,0.0703656002499032,0.11139224187169,-0.00915421556716523,-0.0122656314053905,0.0100028163979325,-0.00652661073053694,-0.0131750071691105,-0.00824642220352344,-0.0270577778190941,-0.00110880215282596,-0.00250209360652117,0.084328544077331,0.0185528395261459,0.117110949434032,-6.70278079247323e-05,0.0448669851908559,0.0294547978540598,0.00162903556279674,0.017208370488469
"2005/8/16",0.0655529618938586,-0.0830892657089115,0.0652237735741584,-0.0134986019171047,-0.00482199717407772,0.0292058510444288,-0.0316461868227424,-0.0168561869666476,-0.0408427508694879,0.109761038033872,-0.593092039524986,-0.0205609329106199,1.10720052465858,0.256806931678762,0.191347278403546,0.030494210517951,0.0398520181775497,0.0883814039887885,0.0299847507816233,0.115156433752286,0.0912073842135313,0.0610435141186362,0.11197823606892,-0.00880139804975285,-0.0113710118745598,0.00908926507936487,-0.0066128245393713,-0.0126285765773586,-0.00804126841631702,-0.0274757293738097,-0.000729503640537302,-0.00227917935170811,0.0843018807528226,0.0186043719910126,0.145267185954802,0.00211100912498528,0.0447956396649878,0.030599188989875,0.000784328809586108,0.0193799181753307
"2005/8/17",0.0497430690925569,-0.0773409433929465,0.0386612638433476,-0.0243694478687695,-0.00903386205915065,0.0203313811992879,-0.0367270876881856,-0.0169377596809251,-0.0418812094208985,0.109023460330648,-0.647030503576017,-0.0284719669399525,1.09864149324458,0.256963744761436,0.210235984360118,0.0819484588664214,0.0429530045443703,0.0886671022594727,0.0336220308212979,0.115012568972554,0.0942071830254508,0.0773624324916357,0.111972562995619,-0.00751069476202189,-0.00985073322513719,0.0105073121006729,-0.00668059517031813,-0.012629882964882,-0.00780255389281472,-0.0263711268075018,-0.00203372445690656,-0.00220344299327546,0.0611512054408203,0.0179753452573205,0.0979102922808987,-0.00193404999894013,0.0417973961369165,0.0180377074965869,-0.00161133267540215,0.0181786919734523
"2005/8/18",0.0380379237807118,-0.0700648492962335,0.00749778497590582,-0.0263441139122855,-0.0101963816913979,0.0127125904318671,-0.0414229565581496,-0.0231364101417501,-0.0456618136449325,0.0986201011197926,-0.607123090675016,-0.00199765160127016,1.1168012934931,0.254324180389732,0.234050348433932,0.114005573243098,0.0381072563019939,0.0893205274072017,0.0304639966074152,0.11467594950409,0.0840127438416323,0.0715229352851992,0.111382308523443,-0.0081042831837655,-0.0104906927861805,0.00872548277624166,-0.00806682870509924,-0.0106844178493815,-0.00836086249181145,-0.0269708323733198,-0.00247425217713999,-0.00256847119826896,0.0591151981179684,0.0161181778927469,0.10117072444467,-0.00172593330002599,0.0410741945556949,0.0172063218648128,-0.00454567925080777,0.0173314473503783
"2005/8/19",0.0416973799275867,-0.0693936500065121,0.0203177358264232,-0.0351212057862438,-0.0188696419052168,0.00522055735051159,-0.0493097319030694,-0.0282911850375401,-0.0463248165025549,0.100912988322696,-0.592163560000228,-0.00580371559883023,0.996127196245657,0.254402632379075,0.234198698482767,0.1144368152226,0.0327889510562705,0.0878718504231827,0.0266823859896584,0.114498653657549,0.0848916908747991,0.0697050060865682,0.110769559063176,-0.00796978636399712,-0.0105017763119489,0.00984683864542311,-0.00767940147963863,-0.0112828092216739,-0.00740301307143037,-0.0221424317893303,-0.00331679005880143,-0.00263796442152042,0.0640010989279788,0.0153934707095545,0.0684889793525707,-0.00413278705585052,0.0408484219768777,0.0154901611205813,-0.00479037636715578,0.0202340737967806
"2005/8/22",0.0444338884383569,-0.0588670225966601,0.0377628110866843,-0.0229538215041928,-0.0160591428011823,0.0086563880748076,-0.0386008565699201,-0.0214736887556392,-0.0374914307934596,0.100076181598967,-0.579348302444544,-0.0112321263132378,1.01039424331777,0.253993354359769,0.232159566229337,0.0101709911579129,0.0335634147741999,0.0881012126909287,0.0231007847066209,0.114525211504851,0.084166343954801,0.0763765234198147,0.110668048345207,-0.00651226807324332,-0.0090689375548848,0.010364471281936,-0.00828368807816198,-0.0105136962114152,-0.00743538101545337,-0.0232403884834652,-0.00193304990769592,-0.00175338192294319,0.0617813899676551,0.0168146144837555,0.0707084800536145,-0.00285337487218294,0.0412841716412462,0.0196423499087446,-0.00287617970981017,0.0219713553004674
"2005/8/23",0.0313265255196207,-0.0602684331676833,0.0957550149916888,-0.0186727255312568,-0.0144278242787508,0.0103220857274886,-0.0391133717715547,-0.0232337759475575,-0.037925558355315,0.0969325007093184,-0.560222851901831,-0.00942984333660176,0.895468098473562,0.260647589836844,0.239118343651676,0.0284909166009363,0.0370160757554929,0.0868291591204274,0.0251992814233011,0.114294336267335,0.0791375343351697,0.0767304762621889,0.108218117540653,-0.00722203491660309,-0.00827129777961248,0.00877901231471853,-0.00758193244428486,-0.0113001971853437,-0.00901471082250621,-0.02319046170601,-0.00222090876942052,-0.00176407760043386,0.0586498268330581,0.0169117232076056,0.0766913190177798,-0.0102612692785706,0.0416459130135275,0.0164828031033417,-0.00478782585165248,0.0175635730606042
"2005/8/24",0.0313231221427202,-0.054319382422971,0.0951471313456385,-0.00562405086148417,-0.00131762104592233,0.0139433976948181,-0.0320308522736223,-0.0198151832785231,-0.0411967704712412,0.0843029812486445,-0.674963545884858,-0.0100581249366146,0.826112742694227,0.26371980363158,0.232385316085024,0.061557912595158,0.026519011942205,0.0896258767547435,0.0197137364432669,0.116159667525901,0.0768123069629265,0.0730484491553366,0.111885538587168,-0.00806797082648781,-0.00952745874372109,0.0112787571543941,-0.00853547778524112,-0.0106063293137903,-0.00710327569425724,-0.0230743489778322,-0.00303987767734328,-0.0025232685592218,0.0593211812638589,0.017509179032744,0.0651592359547642,-0.0137039877271317,0.0389378963583082,0.00858150470336274,-0.00559322010410388,0.0140864084124888
"2005/8/25",0.0426962347678089,-0.0593322379250131,0.0290234874766488,-0.00870897067710265,-0.00354931604245633,0.015706111525005,-0.0335503567828701,-0.020222525188868,-0.0410089645186119,0.0914495149245478,-0.64572012552041,-0.00762854071589223,0.904013802989876,0.262492641186075,0.242355811378642,0.0478407152161113,0.0300690419404147,0.0867528449282402,0.0181948490288939,0.115571185710733,0.0783740308454687,0.0761139679279016,0.109755019982885,-0.00830762162973735,-0.0107857476714599,0.00977633395199057,-0.00951179396783432,-0.011803430274154,-0.00286919425163624,-0.0203691435498422,-0.0040829962682928,-0.00297831117451358,0.0646432283005381,0.0165443789772132,0.0443224053557777,-0.0174531816549693,0.0363760627750482,0.00528482863088005,-0.0076093153081811,0.010324582316775
"2005/8/26",0.0382399456937971,-0.0487950633063963,0.0489363686460482,-0.00194901535055302,0.00144559280240094,0.00796516335580479,-0.0345500429307048,-0.0237862427210738,-0.046163800804346,0.0933123098257448,-0.65728464605108,0.00252523561637345,0.806942676215386,0.263065545907004,0.246567885211565,0.0570888119871,0.0252884625177812,0.08656049474064,0.0250369606938125,0.114375679983387,0.0783046794368231,0.0791920745573666,0.108492317222784,-0.0094511702837671,-0.00995477676433858,0.00872969207338228,-0.00971101940797566,-0.0111289508631948,-0.00049854682843395,-0.0164268162137351,-0.00428287894155507,-0.00275375734552218,0.0514153945312263,0.0168257181096055,0.0286113030497491,-0.0202367064876619,0.0374420392796056,0.00701435371684901,-0.00944588473394328,0.012065848412331
"2005/8/29",0.0353696478889138,-0.0432056130841528,0.0696496111610875,-0.00427093494631025,0.00108556345782318,0.002830349066422,-0.0388539658580067,-0.0301113666898186,-0.0506629490942391,0.0933188517285441,-0.662509635630505,-0.0014806587098219,0.710114477421493,0.264279989170989,0.250291294189317,0.140196067103589,0.0355410752801868,0.0851766049670822,0.0345021354081003,0.114902096128864,0.0768897950936031,0.0795268178027979,0.109078025030052,-0.00904639748345803,-0.00845534686175233,0.00872107468422417,-0.00970741905546878,-0.0101499946178286,0.000592332618968096,-0.0137397590074569,-0.00407956522142819,-0.0024864215168197,0.0553807452281701,0.0145922119555757,0.0237874019513005,-0.0201850308437753,0.0374042307834316,0.00895723646432853,-0.00879980062519182,0.0133795234703176
"2005/8/30",0.0393073633672188,-0.0261705311058738,0.0830099158213369,0.0142469986499415,0.00958104588981114,-0.00686495556895685,-0.0401593266827417,-0.0423769301762365,-0.0590027130928013,0.0931783318848535,-0.443866455832013,0.0252196276923139,0.622188476619079,0.269318301694437,0.25059113485119,0.0955276646088349,0.0306526992212503,0.0857758989045116,0.0374755880555146,0.116595704809972,0.0764288968921818,0.0796970531458176,0.110882729988438,-0.00995239643029456,-0.0062951699959202,0.0129269404089988,-0.00960074301269808,-0.0118039719865047,0.00092466843426068,-0.0170163405177047,-0.00413685105864815,-0.001068661393919,0.06900926234704,0.0144105977006914,-0.014748399545358,-0.0200399531686621,0.0412253689554847,0.00691858953412071,-0.00750622716984817,0.0144676347509708
"2005/8/31",0.0402208826566778,-0.0252232411171825,0.0390044321025277,0.00805046303614001,0.0142390081365817,0.00156306679475611,-0.0291817684662532,-0.0247352085615791,-0.0524258235337662,0.0914492048149938,-0.110550949666035,0.0652711933691663,0.801164938350408,0.264279930393506,0.251368991323046,0.134941837982122,0.0498545236683022,0.0852041088475194,0.0481745252686343,0.116473039439361,0.0764919529530713,0.0792598679838525,0.108827893381585,-0.00974284086356701,-0.006692197543791,0.0121120643324581,-0.00925138627825516,-0.0124029522708044,-0.000633131045694839,-0.0191750271817359,-0.0046972705455811,-0.00195454667116237,0.0641040409467714,0.0143860112779625,-0.00568970904886886,-0.0183331123288232,0.0350042292333353,0.00435612608806972,-0.00702880744411967,0.0137175910606237
"2005/9/1",0.0214551993417146,-0.0121385602656035,0.0110328046031273,-0.00310822459581859,0.0200552864538305,0.00601924174465219,-0.0164415271579162,-0.00182138269501721,-0.0440618334747687,0.0914167686445277,-0.000897304809158677,0.0683080621162866,0.972421842184702,0.26123554759645,0.250560389664813,0.136074955355297,0.0468284746213007,0.0852320002277487,0.0415254568282204,0.114695504517882,0.0740451869567102,0.0800116594940893,0.108383987933902,-0.00736075656149304,-0.00464327715102685,0.0116923580289353,-0.00703258017268189,-0.00651271788065163,-0.00365649719087184,-0.020196974459569,-0.00408138124338924,-0.00120050650757558,0.0642512414393963,0.0142787343647963,0.0525375477127714,-0.0117296795573843,0.0364725106383925,0.00729921460619872,-0.00804328186514106,0.0224748695677632
"2005/9/2",0.0245873097593955,-0.00885014383572707,-0.0306535344779691,-0.00405692392135553,0.0221922253200032,0.0130795327874991,-0.00590835092192108,0.0113173526940713,-0.0357907118401994,0.0897693229563677,0.0308501353100686,0.0976474024003259,1.08424316849999,0.261645763171423,0.249900657548348,0.197408591303254,0.0416971494993539,0.0853651010378168,0.0412597282748287,0.114889446029511,0.0740143897133256,0.0803865500676912,0.107784796915975,-0.00763293637301914,-0.0053679435779333,0.0131077388092325,-0.00670216497816503,-0.00366556954649633,-0.00376737453162207,-0.018957396906106,-0.00415239431432522,-0.000988254341140293,0.0505558798850175,0.0143451047783606,0.04615186985666,-0.0107263274920411,0.0383749694714214,0.00998942230249462,-0.00661294514878886,0.0220805447275732
"2005/9/5",0.0248945698911965,-0.00976474215127774,-0.0126229913285377,-0.00753539182260979,0.016065064424003,0.0201544376803001,-0.000429475331261633,0.0204051144026934,-0.0247455793429232,0.090512885194045,0.0432759792288565,0.105774842676767,1.15317396377964,0.265445810143123,0.253169217677134,0.199272896226051,0.0458837785814862,0.0847032764272585,0.04123019770309,0.114993678472633,0.0740097919906033,0.0778311573921055,0.108273965958186,-0.00772804495986994,-0.00536380057178966,0.0143853550582131,-0.00572822951161115,-0.00193587940751403,-0.00369627924652692,-0.0177818139551883,-0.0039486859370581,-0.00030942552113476,0.0462611629616362,0.0145801040114567,0.0664201547809045,-0.00603859234846691,0.0403759486907324,0.0105943188533787,-0.00762485114033074,0.0222271786468555
"2005/9/6",0.0229075826394905,-0.0129108823303787,-0.0200725150747425,-0.015101618181367,0.0185127021856202,0.0205214295371565,-0.000461030253594741,0.0238463804340266,-0.0272245519261293,0.0905058163099208,0.0240786628762768,0.10222169235711,1.06749510379037,0.265190314906934,0.251508295045038,0.229501621500167,0.0604875061160953,0.0826232933294858,0.054313929491936,0.114820977587973,0.0739924239387237,0.0769495206451531,0.105003277756406,-0.00716280728045134,-0.00265587919423424,0.0159799468713314,-0.00678779807505579,-0.00378219121645455,-0.000657470094226877,-0.0124608697598646,-0.00289397367221899,1.83483230205587e-05,0.043229419718829,0.0145590907201289,0.07282979034202,-0.00718993530177708,0.0377140140493677,0.00731692375846034,-0.00960024462733357,0.0202530271130143
"2005/9/7",0.0341747776814401,-0.017199478182513,-0.0308998576972775,-0.0164763131744784,0.0180211581705023,0.0189106839986259,-0.00505201680825748,0.0188874368225515,-0.0313314538318979,0.0895035212395577,-0.0301296499695859,0.0860970131923264,1.2243545662161,0.296510776824022,0.25901791006274,0.217067854179964,0.0591281541413958,0.0834246071602588,0.0520778529031989,0.117028399666225,0.0739613763236509,0.0767638912913531,0.102807091977373,-0.00871612057885272,-0.000739074622930116,0.0175690013872641,-0.00811196262659991,-0.00265489155324687,-0.00120792149862432,-0.0105163157791959,-0.00413295512193824,-0.00173732915546805,0.035979802765195,0.0142951252917724,0.0840505650019307,-0.00764835166972945,0.0365012193447767,0.00481998350757947,-0.0128069048346539,0.0173203972923716
"2005/9/8",0.0421671835252861,-0.0280342280371672,-0.0378344066696302,-0.0137974926354006,0.0232783202089379,0.0240925398815085,-0.00570775775710588,0.0172623507308609,-0.0361980922221602,0.0894857280862656,-0.0649418268469472,0.0807264011210777,1.22815330533598,0.296998092542302,0.259319463632831,0.246277635504607,0.055079547530199,0.0833367125933393,0.0516558374852784,0.116942745610085,0.0740052983565699,0.0736481716493819,0.102798837220856,-0.00937146275882656,-0.00202699111394366,0.0171706489034651,-0.00713884885870869,-0.0013314207231392,0.000461483234758452,-0.00809928346371091,-0.00474213387177765,-0.00218334815664757,0.0321007134744955,0.0143189581282484,0.0805175571863478,-0.0104882324292871,0.0318308871787106,0.00236628529922024,-0.0136144775435644,0.0154891479444843
"2005/9/9",0.0405895128373109,-0.0428085417188433,-0.0575737262920299,-0.0328939333893065,0.00870060331566585,0.0224725371535743,-0.0142693896212254,0.0152481484011343,-0.0326053440474606,0.0894264520385239,-0.0841775989132548,0.0820154719909813,1.21630958616254,0.296536098660573,0.258184823758854,0.220508620092138,0.0668882079646003,0.0831813376570296,0.0623195575208885,0.117922072155754,0.0743395013881842,0.0712830575037935,0.102782521166997,-0.0099259843464216,-0.0028994669725453,0.0173568687983961,-0.00695309868273623,-0.00295352673848271,0.00498830170099751,-0.00341138654487469,-0.00640808745528063,-0.00407009905889924,0.0238469259601427,0.0142759855990673,0.079027754197587,-0.00874010564919334,0.0241008973233734,-0.00130527653327767,-0.0159906628561179,0.0151074253435115
"2005/9/12",0.0296562840566939,-0.0407372839471532,-0.0243233015891703,-0.019186299930801,0.00523078740249758,0.0169991166048431,-0.0188149188249271,0.00213781202637307,-0.0334684373274134,0.089431736597079,-0.11975965907836,0.0684813579614714,0.92475368392122,0.281056380950464,0.248419476184843,0.162941474547529,0.0631767245878992,0.0826543997664428,0.0645821709294198,0.117871554884951,0.0742984591391544,0.0712811517621629,0.103253499571843,-0.0113391549946798,-0.00504472333513082,0.0179862639371455,-0.00815738126406922,-0.00534593130097621,0.00566553317073835,-0.00220251090279155,-0.00775978750412826,-0.00513812008682457,0.0176375413705747,0.0141717552201213,0.0838295147351259,-0.00848666968300718,0.0286283514831893,0.00192913176569503,-0.0130516728305879,0.0198963333946701
"2005/9/13",0.0281732801262221,-0.0386508106383387,0.00211667060432979,-0.0231729906145217,0.0095686523428695,0.014293604467692,-0.0216396349720351,0.00178612253579823,-0.0405059021273123,0.0871534919333499,-0.0901306751287133,0.06559122081165,0.817477988087607,0.297854688113767,0.252529733868446,0.130835544547511,0.0571546825816487,0.0818822372414328,0.061817148550239,0.115358849883527,0.0728734731659136,0.0705522111058046,0.104380301394825,-0.0114222257129796,-0.00670178215569378,0.0173379684557181,-0.00787307829869604,-0.00737835309441624,0.00589907199843335,-0.00194307384795837,-0.00723090436252907,-0.00479611525089644,0.0184280743315461,0.0135599192688762,0.0692835508335444,-0.00929977194974669,0.026904278614436,0.00470847454347738,-0.0125642653830528,0.0207348518242797
"2005/9/14",0.0131475662781675,-0.0453796241515057,-0.00323063767296841,-0.0184781535581748,0.00725819383552079,0.020249504335044,-0.0181386340281153,0.00368049518351156,-0.0349170103188101,0.0871104252764262,-0.207999884875502,0.0274751130178578,0.648467506545825,0.311924526501176,0.25169659068696,0.11382219727663,0.048440351304617,0.0818689093861654,0.0455685406891969,0.115682124622865,0.0740231517359082,0.0702227435895736,0.103965641724483,-0.0114413266200394,-0.00619177958199106,0.0181885227765641,-0.00762343525564595,-0.00890329122309967,0.00519520731111525,-0.000865659283378315,-0.00807964797972481,-0.0046267471967589,0.0296104990417073,0.0139768992045955,0.0955924314124815,-0.00790492576575052,0.0349969306770126,0.00639395759066826,-0.011193662368464,0.021510020440101
"2005/9/15",0.00266527773711559,-0.0452092083428693,0.0426483000711948,0.00138017158357932,0.00658655205276968,0.0172197936154575,-0.0223556675249916,-0.00985298365598234,-0.0389012194893766,0.0872641281643405,-0.28858570408049,-0.00567399226119797,0.496244654199841,0.309409241868218,0.231857583202112,0.0694882916694059,0.0637379008593287,0.0820528765047875,0.0531372781241193,0.114784693469947,0.0739960336953465,0.0693159965230902,0.104137252879783,-0.0114627012380495,-0.00801553016895593,0.0170541298005944,-0.00802102626726922,-0.0105835043001177,0.00531016881304585,0.00129456787066106,-0.008433251951831,-0.00443318229870602,0.0210748481969872,0.0139834275905334,0.109033225960707,-0.00851481682119136,0.0361634623014433,0.00225149194871641,-0.0171178971270204,0.0198649301118425
"2005/9/16",0.0137742277996979,-0.0536722271101556,0.075636619736345,0.0010999352978763,0.0126321804495964,0.0163955074540496,-0.0279210399046549,-0.0148291518462052,-0.0469338838191586,0.0866465460156174,-0.43261229616278,-0.0343971802350714,0.397184258062763,0.310963242916716,0.178368575143869,0.0485012561906405,0.0811138840010762,0.0821346166614688,0.0677963172107857,0.115834960465372,0.0736798444165282,0.068889544892771,0.106613852387472,-0.0116576275388313,-0.00802703950752631,0.0194598374351843,-0.00847589995271848,-0.0104024768702188,0.00430482394719629,-6.76942421832861e-05,-0.00807018906069949,-0.00567256145006517,0.00531305809505942,0.013931753961131,0.14005695925659,-0.00171435671625597,0.0317060977840327,-0.00228046897772691,-0.0159602840790098,0.0178742300810445
"2005/9/19",0.0406238469216156,-0.079378347905917,0.0576627622041208,-0.0186153325545126,-0.0022346104339248,0.0201816573274731,-0.0359741403107,-0.0150910669963113,-0.0455427019600539,0.0863758553089286,-0.363920519452305,-0.0261822319720315,0.414182565093471,0.305088281912971,0.170557582331839,0.0369344198167476,0.0720433593833935,0.083570172764537,0.059201756025527,0.118451106229233,0.0740095662394598,0.0683040331955588,0.107311687847772,-0.0120971056813564,-0.00510399437148979,0.0199745219885395,-0.00895970719043766,-0.0117015721980674,0.00491111307690706,-0.000204575785393387,-0.0071562509001184,-0.00164562136051653,0.0257032334757804,0.0122953201173062,0.18548921066974,0.00389987066510198,0.0384455567713569,0.00410935137437841,-0.010632391572582,0.0257935996878209
"2005/9/20",0.0481064397456896,-0.0822939397104507,0.0676318957638722,-0.0158210495778636,0.00268313011125949,0.0228415360787489,-0.034529658647639,-0.014872434689982,-0.0474452010256155,0.0864948324966193,-0.400573401721186,-0.0184026798356237,0.527914783502783,0.311006148453964,0.195505273098587,0.0441625246510462,0.0536478243148103,0.0870229912971556,0.0486844751446841,0.120461939372156,0.0715854631908281,0.0696869059937511,0.107054497859686,-0.012062495507432,-0.00611053866558227,0.0182798641933459,-0.00667589351540337,-0.0100472607109714,0.00862171520750777,-0.000330574176585686,-0.00700147338647602,-0.00228203188057405,0.028357191852146,0.0122929017075355,0.196328483709319,0.00442619056954866,0.0422243976879931,0.00357730787039553,-0.0113627535136867,0.030362436413194
"2005/9/21",0.0678966441211884,-0.0830995788381974,0.0502471005415691,-0.0175327268742352,-0.00101119875428889,0.0274705957067582,-0.027386100234925,-0.00637227172770663,-0.0407651035714563,0.0864400970406241,-0.345128482462271,0.00537415726056215,0.65548570278612,0.302472195406086,0.214428622777733,-0.0204246686815164,0.0376446759105602,0.0829001468710959,0.0351950074986977,0.116652485254336,0.0714849527011989,0.0701026527415516,0.103229561876436,-0.0120382640834684,-0.00512201298651954,0.0130354145615731,-0.0070817549138648,-0.0106761301426544,0.0077247954112785,0.00189886172448741,-0.0069545256472239,-0.00131706650581785,0.0323194946148284,0.0122984040877423,0.201058899702091,0.0039777672557008,0.0417937166952659,0.00934902991948926,-0.0127087121221835,0.0322262625643572
"2005/9/22",0.0533185092672239,-0.0667642599664595,0.0510359395624107,-0.0187222519696879,-0.00514341758810631,0.0152626782414337,-0.0353953307747478,-0.0169686563615678,-0.0425133977367533,0.0858988277031113,-0.328932988464395,0.00420318944981635,0.560244832781103,0.309299979282981,0.186319651573795,-0.00846698175564827,0.0430324668411692,0.0833646701644632,0.0358154322370056,0.116556454849316,0.0723612941778959,0.0704802313546265,0.103175505655455,-0.0106073098995458,-0.005277277047361,0.0144103711034011,-0.0065715543588246,-0.0107816071407237,0.00681686796220658,0.00323750447372995,-0.00562591765980258,0.00133919433674587,0.036017178871053,0.0123586929120016,0.191941224585017,0.00528422707941232,0.0422588131340931,0.0124840046246214,-0.0125601448669563,0.0314136807159704
